{"learner":{"attributes":{"best_iteration":"99","best_ntree_limit":"100","scikit_learn":"{\"use_label_encoder\": true, \"n_estimators\": 100, \"objective\": \"binary:logistic\", \"max_depth\": null, \"learning_rate\": null, \"verbosity\": null, \"booster\": null, \"tree_method\": null, \"gamma\": null, \"min_child_weight\": null, \"max_delta_step\": null, \"subsample\": null, \"colsample_bytree\": null, \"colsample_bylevel\": null, \"colsample_bynode\": null, \"reg_alpha\": null, \"reg_lambda\": null, \"scale_pos_weight\": null, \"base_score\": null, \"missing\": NaN, \"num_parallel_tree\": null, \"random_state\": null, \"n_jobs\": null, \"monotone_constraints\": null, \"interaction_constraints\": null, \"importance_type\": null, \"gpu_id\": null, \"validate_parameters\": null, \"predictor\": null, \"enable_categorical\": false, \"classes_\": [0, 1], \"_le\": {\"classes_\": [0, 1]}, \"n_classes_\": 2, \"_estimator_type\": \"classifier\"}"},"feature_names":["age","gender","height","weight","ap_hi","ap_lo","cholesterol","gluc","smoke","alco","active"],"feature_types":["int","int","float","float","int","int","int","int","int","int","int"],"gradient_booster":{"model":{"gbtree_model_param":{"num_trees":"100","size_leaf_vector":"0"},"tree_info":[0,0,0,0,0,0,0,0,0,0,0,0,0,0,0,0,0,0,0,0,0,0,0,0,0,0,0,0,0,0,0,0,0,0,0,0,0,0,0,0,0,0,0,0,0,0,0,0,0,0,0,0,0,0,0,0,0,0,0,0,0,0,0,0,0,0,0,0,0,0,0,0,0,0,0,0,0,0,0,0,0,0,0,0,0,0,0,0,0,0,0,0,0,0,0,0,0,0,0,0],"trees":[{"base_weights":[-3.6020443E-2,-7.137637E-1,1.0196037E0,-1.0424398E0,-2.1342659E-1,3.8677686E-1,1.3609736E0,-1.1032304E0,3.426295E-1,-3.2977912E-1,7.8659034E-1,2.1601763E-1,1.1506172E0,1.2829435E0,1.462855E0,-1.3918762E0,-9.776883E-1,1.0344827E0,-1.6438356E-1,-5.017146E-1,1.1619959E-1,6.0486674E-1,1.2087913E0,4.931507E-2,4.6879333E-1,1.2697548E0,9.608247E-1,1.2513369E0,1.4290402E0,5.4545456E-1,1.4674735E0,-1.4527576E0,-8.064516E-1,-1.2174901E0,-8.767254E-1,5.8536583E-1,1.1701245E0,-3.6871508E-1,7.1428573E-1,-8.2433987E-1,-4.052019E-1,4.7619048E-1,1.7391304E-2,1.8397626E-1,8.679245E-1,1.3415638E0,9.12E-1,-7.156309E-2,5.5520505E-1,8.018018E-1,3.8189206E-1,1.295423E0,-1.1764706E-1,7.360595E-1,1.2181818E0,1.3834356E0,1.2119191E0,5.714286E-1,1.4342432E0,-3.3333334E-1,8.8E-1,1.4848796E0,1.2575406E0,-1.6145375E0,-1.3482205E0,-1.0958904E0,-3.846154E-1,-1.2669533E0,-9.1053677E-1,-5.9831125E-1,-9.445926E-1,-5E-1,6.666667E-1,6.2068963E-1,1.315508E0,-9.508197E-1,-2.4584718E-1,1.030303E0,-3.6363637E-1,-8.6470234E-1,2.4096385E-2,-8.8737205E-2,-4.8417452E-1,-0E0,6.0728747E-1,5.73543E-2,-5.915493E-1,6.1290324E-1,-6.451613E-2,-2.857143E-1,8.923077E-1,2.857143E-1,1.3819742E0,1.3333334E0,7.096774E-1,-6.069652E-1,-2.7664768E-2,6.013514E-1,-8.695652E-2,-3.3333334E-1,8.2568806E-1,4.5614034E-1,-2.3404256E-1,-5.4545456E-1,4E-1,1.2682927E0,4.921466E-1,-0E0,1.2523365E0,-5E-1,1.3907692E0,1.2449889E0,1.0759076E0,8E-1,-0E0,1.4767568E0,1.2777778E0,-0E0,-5E-1,1.2E0,-2.2222222E-1,1.4013377E0,1.5104933E0,5.263158E-1,1.2788461E0],"categories":[],"categories_nodes":[],"categories_segments":[],"categories_sizes":[],"default_left":[true,true,true,true,true,true,true,true,true,true,true,true,true,true,true,true,true,true,true,true,true,true,true,true,true,true,true,true,true,true,true,true,true,true,true,true,true,true,true,true,true,true,true,true,true,true,true,true,true,true,true,false,true,true,true,true,true,true,true,true,true,true,true,false,false,false,false,false,false,false,false,false,false,false,false,false,false,false,false,false,false,false,false,false,false,false,false,false,false,false,false,false,false,false,false,false,false,false,false,false,false,false,false,false,false,false,false,false,false,false,false,false,false,false,false,false,false,false,false,false,false,false,false,false,false],"id":0,"left_children":[1,3,5,7,9,11,13,15,17,19,21,23,25,27,29,31,33,35,37,39,41,43,45,47,49,51,53,55,57,59,61,63,65,67,69,71,73,75,77,79,81,83,85,87,89,91,93,95,97,99,101,-1,103,105,107,109,111,113,115,117,119,121,123,-1,-1,-1,-1,-1,-1,-1,-1,-1,-1,-1,-1,-1,-1,-1,-1,-1,-1,-1,-1,-1,-1,-1,-1,-1,-1,-1,-1,-1,-1,-1,-1,-1,-1,-1,-1,-1,-1,-1,-1,-1,-1,-1,-1,-1,-1,-1,-1,-1,-1,-1,-1,-1,-1,-1,-1,-1,-1,-1,-1,-1,-1],"loss_changes":[8.680472E3,1.2148906E3,1.024311E3,3.758423E2,3.4126532E2,2.1675902E2,2.2618164E1,1.5344434E2,6.6204124E1,2.0141882E2,2.2727158E1,5.7327187E1,5.6481934E0,6.3063965E0,4.831787E0,4.489502E1,7.109375E1,4.17334E0,1.992298E1,5.868692E1,2.6011234E1,2.3727837E1,2.3624268E0,5.026003E1,1.5342499E1,6.6872253E0,6.1170425E0,5.869629E0,5.4034424E-1,2.7187881E0,2.963379E0,1.7601807E1,1.4718376E1,1.2214966E1,3.9133667E1,2.1422768E0,3.99617E0,6.1674604E0,7.528138E0,1.493457E1,3.6470413E1,9.832272E0,1.4026606E1,9.019336E0,3.9820862E0,2.1971893E0,1.7176781E0,1.5583492E1,4.7491837E0,3.2849045E0,1.9805862E1,0E0,1.1593583E0,8.10611E0,2.2883606E0,5.198242E0,3.7172852E0,4.5714283E-1,1.23535156E-1,1.6666666E-1,2.4711108E0,4.8388672E-1,1.0055695E0,0E0,0E0,0E0,0E0,0E0,0E0,0E0,0E0,0E0,0E0,0E0,0E0,0E0,0E0,0E0,0E0,0E0,0E0,0E0,0E0,0E0,0E0,0E0,0E0,0E0,0E0,0E0,0E0,0E0,0E0,0E0,0E0,0E0,0E0,0E0,0E0,0E0,0E0,0E0,0E0,0E0,0E0,0E0,0E0,0E0,0E0,0E0,0E0,0E0,0E0,0E0,0E0,0E0,0E0,0E0,0E0,0E0,0E0,0E0,0E0,0E0,0E0],"parents":[2147483647,0,0,1,1,2,2,3,3,4,4,5,5,6,6,7,7,8,8,9,9,10,10,11,11,12,12,13,13,14,14,15,15,16,16,17,17,18,18,19,19,20,20,21,21,22,22,23,23,24,24,25,25,26,26,27,27,28,28,29,29,30,30,31,31,32,32,33,33,34,34,35,35,36,36,37,37,38,38,39,39,40,40,41,41,42,42,43,43,44,44,45,45,46,46,47,47,48,48,49,49,50,50,52,52,53,53,54,54,55,55,56,56,57,57,58,58,59,59,60,60,61,61,62,62],"right_children":[2,4,6,8,10,12,14,16,18,20,22,24,26,28,30,32,34,36,38,40,42,44,46,48,50,52,54,56,58,60,62,64,66,68,70,72,74,76,78,80,82,84,86,88,90,92,94,96,98,100,102,-1,104,106,108,110,112,114,116,118,120,122,124,-1,-1,-1,-1,-1,-1,-1,-1,-1,-1,-1,-1,-1,-1,-1,-1,-1,-1,-1,-1,-1,-1,-1,-1,-1,-1,-1,-1,-1,-1,-1,-1,-1,-1,-1,-1,-1,-1,-1,-1,-1,-1,-1,-1,-1,-1,-1,-1,-1,-1,-1,-1,-1,-1,-1,-1,-1,-1,-1,-1,-1,-1],"split_conditions":[1.295E2,5.45E1,1.385E2,2.5E0,2.5E0,2.5E0,1.495E2,4.45E1,2.5E0,6.05E1,6.15E1,8.85E1,2.5E0,6.15E1,6.6E1,1.5E0,1.195E2,7.7E1,8.05E1,1.185E2,5E-1,6.875E1,1.5E0,6.05E1,5E-1,1.785E0,7.85E1,4.85E1,6.25E1,5.45E1,2.5E0,1.195E2,7.35E1,1.5E0,5E-1,1.525E0,6.45E1,4.35E1,1.715E0,9.15E1,5E-1,1.17E2,5E-1,2.5E0,6.75E1,5.75E1,7.45E1,4.25E1,5E-1,5.55E1,5E-1,3.8862693E-1,8.45E1,1.575E0,1.515E0,5.25E1,1.5E0,1.645E0,1.5E0,7.45E1,6.2E1,1.585E0,4.45E1,-4.8436126E-1,-4.0446615E-1,-3.2876712E-1,-1.1538462E-1,-3.8008603E-1,-2.7316105E-1,-1.7949338E-1,-2.833778E-1,-1.5E-1,2.0000002E-1,1.8620689E-1,3.9465243E-1,-2.8524593E-1,-7.3754154E-2,3.090909E-1,-1.0909092E-1,-2.594107E-1,7.2289156E-3,-2.6621163E-2,-1.4525236E-1,-0E0,1.8218625E-1,1.720629E-2,-1.7746478E-1,1.8387097E-1,-1.9354839E-2,-8.5714296E-2,2.6769233E-1,8.5714296E-2,4.145923E-1,4.0000004E-1,2.1290323E-1,-1.8208957E-1,-8.299431E-3,1.8040542E-1,-2.6086958E-2,-1.0000001E-1,2.4770643E-1,1.368421E-1,-7.021277E-2,-1.6363637E-1,1.20000005E-1,3.8048783E-1,1.4764398E-1,-0E0,3.7570098E-1,-1.5E-1,4.1723078E-1,3.7349668E-1,3.227723E-1,2.4000001E-1,-0E0,4.4302705E-1,3.8333336E-1,-0E0,-1.5E-1,3.6E-1,-6.666667E-2,4.2040133E-1,4.53148E-1,1.5789475E-1,3.8365385E-1],"split_indices":[4,0,4,6,6,6,4,0,7,0,0,5,7,0,5,6,4,5,3,4,10,3,1,0,10,2,3,0,5,0,7,4,3,6,10,2,3,0,2,3,10,4,8,7,5,3,5,0,8,3,8,0,3,2,2,3,7,2,7,3,5,2,0,0,0,0,0,0,0,0,0,0,0,0,0,0,0,0,0,0,0,0,0,0,0,0,0,0,0,0,0,0,0,0,0,0,0,0,0,0,0,0,0,0,0,0,0,0,0,0,0,0,0,0,0,0,0,0,0,0,0,0,0,0,0],"split_type":[0,0,0,0,0,0,0,0,0,0,0,0,0,0,0,0,0,0,0,0,0,0,0,0,0,0,0,0,0,0,0,0,0,0,0,0,0,0,0,0,0,0,0,0,0,0,0,0,0,0,0,0,0,0,0,0,0,0,0,0,0,0,0,0,0,0,0,0,0,0,0,0,0,0,0,0,0,0,0,0,0,0,0,0,0,0,0,0,0,0,0,0,0,0,0,0,0,0,0,0,0,0,0,0,0,0,0,0,0,0,0,0,0,0,0,0,0,0,0,0,0,0,0,0,0],"sum_hessian":[1.2131E4,7.388E3,4.743E3,4.45825E3,2.92975E3,1.66275E3,3.08025E3,4.271E3,1.8725E2,2.625E3,3.0475E2,1.36E3,3.0275E2,1.752E3,1.32825E3,1.2915E3,2.9795E3,7.875E1,1.085E2,1.8945E3,7.305E2,2.1475E2,9E1,8.2025E2,5.3975E2,1.825E2,1.2025E2,1.44825E3,3.0375E2,7.25E0,1.321E3,1.1685E3,1.23E2,8.795E2,2.1E3,1.95E1,5.925E1,8.85E1,2E1,4.345E2,1.46E3,1.565E2,5.74E2,8.325E1,1.315E2,5.975E1,3.025E1,6.6275E2,1.575E2,1.1E2,4.2975E2,1.7925E2,3.25E0,6.625E1,5.4E1,3.25E2,1.12325E3,2.5E0,3.0125E2,2E0,5.25E0,1.21425E3,1.0675E2,4.53E2,7.155E2,7.2E1,5.1E1,7.5475E2,1.2475E2,4.135E2,1.6865E3,1E0,1.85E1,1.35E1,4.575E1,1.425E1,7.425E1,1.55E1,4.5E0,4.1475E2,1.975E1,2.92E2,1.168E3,3.4E1,1.225E2,5.395E2,3.45E1,3E1,5.325E1,2.5E0,1.29E2,2.5E0,5.725E1,8E0,2.225E1,4.925E1,6.135E2,1.47E2,1.05E1,2E0,1.08E2,3.8375E2,4.6E1,1.75E0,1.5E0,1.95E1,4.675E1,1.5E0,5.25E1,1E0,3.24E2,8.97E2,2.2625E2,1.5E0,1E0,2.3025E2,7.1E1,1E0,1E0,4E0,1.25E0,2.98E2,9.1625E2,3.75E0,1.03E2],"tree_param":{"num_deleted":"0","num_feature":"11","num_nodes":"125","size_leaf_vector":"0"}},{"base_weights":[-2.515109E-2,-5.118323E-1,7.40687E-1,-7.5459933E-1,-1.5013905E-1,2.7405438E-1,1.0000368E0,-8.4112877E-1,-2.299406E-1,-2.3259945E-1,5.676129E-1,1.5109622E-1,8.3867943E-1,9.375328E-1,1.0827414E0,-1.1542836E0,-7.6180565E-1,-4.3497214E-1,2.4740328E-1,-3.5434464E-1,8.157948E-2,3.5677195E-1,7.933947E-1,5.3955752E-2,4.1345498E-1,8.519019E-1,1.8444004E-2,9.117325E-1,1.058302E0,4.076282E-1,1.0862308E0,-1.1773711E0,-7.015703E-1,-9.5696265E-1,-6.819021E-1,-6.8781626E-1,-1.8697727E-1,7.545009E-1,-1.17271036E-1,-5.883147E-1,-2.8517142E-1,-1.7808941E-1,1.5182984E-1,1.9444966E-1,7.776777E-1,-3.4253407E-2,8.333019E-1,-8.343017E-2,2.5573492E-1,4.5211202E-1,-5.135375E-2,9.4746685E-1,7.0303494E-1,-6.4506626E-1,8.470141E-1,9.3109524E-1,7.3196024E-1,1.1221617E0,9.3391633E-1,-2.8395733E-1,6.793234E-1,1.1111616E0,9.7990716E-1,-1.3633957E0,-1.1412561E0,-9.3162584E-1,-1.233652E-1,-1.0399624E0,-7.7660745E-1,-7.625641E-1,-5.6008595E-1,-3.7341648E-1,-7.6646453E-1,-4.3454897E-1,-4.785039E-2,9.3017733E-1,3.9639872E-1,-2.3515153E-1,7.6709825E-1,-9.2704636E-1,-4.8953506E-1,-6.22196E-2,-3.4109226E-1,-1.4358374E-1,-1.1918806E0,4.305992E-1,7.624208E-2,6.5811867E-1,7.97921E-2,9.2076015E-1,4.745357E-1,9.390839E-1,-3.6636424E-1,9.9176735E-1,6.2323785E-1,-4.565781E-2,-6.227135E-1,2.7443033E-1,-7.66815E-1,4.712026E-1,-4.2456758E-1,7.831145E-1,-2.799366E-1,1.0230999E0,8.361966E-1,3.3944666E-1,7.983403E-1,-2.2381975E-1,-7.641408E-1,1.0428208E0,8.9610136E-1,8.117777E-1,3.451009E-1,1.1401603E0,3.9047444E-1,6.637441E-1,1.0363582E0,9.3889046E-1,-1.8531317E-1,1.0307652E0,1.1358216E0,9.518746E-1,1.3099874E0],"categories":[],"categories_nodes":[],"categories_segments":[],"categories_sizes":[],"default_left":[true,true,true,true,true,true,true,true,true,true,true,true,true,true,true,true,true,true,true,true,true,true,true,true,true,true,true,true,true,true,true,true,true,true,true,true,true,true,true,true,true,true,true,true,true,true,true,true,true,true,true,true,true,true,false,true,true,true,true,false,true,true,true,false,false,false,false,false,false,false,false,false,false,false,false,false,false,false,false,false,false,false,false,false,false,false,false,false,false,false,false,false,false,false,false,false,false,false,false,false,false,false,false,false,false,false,false,false,false,false,false,false,false,false,false,false,false,false,false,false,false,false,false],"id":1,"left_children":[1,3,5,7,9,11,13,15,17,19,21,23,25,27,29,31,33,35,37,39,41,43,45,47,49,51,53,55,57,59,61,63,65,67,69,71,73,75,77,79,81,83,85,87,89,91,93,95,97,99,101,103,105,107,-1,109,111,113,115,-1,117,119,121,-1,-1,-1,-1,-1,-1,-1,-1,-1,-1,-1,-1,-1,-1,-1,-1,-1,-1,-1,-1,-1,-1,-1,-1,-1,-1,-1,-1,-1,-1,-1,-1,-1,-1,-1,-1,-1,-1,-1,-1,-1,-1,-1,-1,-1,-1,-1,-1,-1,-1,-1,-1,-1,-1,-1,-1,-1,-1,-1,-1],"loss_changes":[4.4161123E3,6.360072E2,5.5688745E2,1.9659424E2,1.7241302E2,1.1415085E2,1.4280029E1,9.154248E1,6.0304077E1,9.9921555E1,1.4009903E1,3.4457584E1,3.1743622E0,4.309204E0,2.5422363E0,7.0133057E0,4.568567E1,2.6872917E1,3.438171E1,3.0297989E1,1.3346844E1,1.0580696E1,4.790329E0,2.7423937E1,6.589157E0,3.4517517E0,3.6737175E0,4.1984863E0,1.2692871E0,1.7179284E0,2.2510986E0,3.2284546E0,5.055315E0,1.20772705E1,2.032373E1,4.976959E0,7.5144005E0,4.519905E0,1.1516036E1,1.3887039E1,1.8116837E1,5.2838407E0,1.2088377E1,6.0449624E0,1.4448166E0,2.7982848E0,3.9615402E0,1.1966176E1,7.869766E0,5.847992E0,5.7423897E0,6.0383606E-1,3.7847252E0,1.5893698E-2,0E0,3.9992676E0,4.073372E0,2.0280762E0,2.2162018E0,0E0,1.5479026E0,8.380127E-1,1.0459442E0,0E0,0E0,0E0,0E0,0E0,0E0,0E0,0E0,0E0,0E0,0E0,0E0,0E0,0E0,0E0,0E0,0E0,0E0,0E0,0E0,0E0,0E0,0E0,0E0,0E0,0E0,0E0,0E0,0E0,0E0,0E0,0E0,0E0,0E0,0E0,0E0,0E0,0E0,0E0,0E0,0E0,0E0,0E0,0E0,0E0,0E0,0E0,0E0,0E0,0E0,0E0,0E0,0E0,0E0,0E0,0E0,0E0,0E0,0E0,0E0],"parents":[2147483647,0,0,1,1,2,2,3,3,4,4,5,5,6,6,7,7,8,8,9,9,10,10,11,11,12,12,13,13,14,14,15,15,16,16,17,17,18,18,19,19,20,20,21,21,22,22,23,23,24,24,25,25,26,26,27,27,28,28,29,29,30,30,31,31,32,32,33,33,34,34,35,35,36,36,37,37,38,38,39,39,40,40,41,41,42,42,43,43,44,44,45,45,46,46,47,47,48,48,49,49,50,50,51,51,52,52,53,53,55,55,56,56,57,57,58,58,60,60,61,61,62,62],"right_children":[2,4,6,8,10,12,14,16,18,20,22,24,26,28,30,32,34,36,38,40,42,44,46,48,50,52,54,56,58,60,62,64,66,68,70,72,74,76,78,80,82,84,86,88,90,92,94,96,98,100,102,104,106,108,-1,110,112,114,116,-1,118,120,122,-1,-1,-1,-1,-1,-1,-1,-1,-1,-1,-1,-1,-1,-1,-1,-1,-1,-1,-1,-1,-1,-1,-1,-1,-1,-1,-1,-1,-1,-1,-1,-1,-1,-1,-1,-1,-1,-1,-1,-1,-1,-1,-1,-1,-1,-1,-1,-1,-1,-1,-1,-1,-1,-1,-1,-1,-1,-1,-1,-1],"split_conditions":[1.295E2,5.45E1,1.375E2,1.5E0,2.5E0,2.5E0,1.495E2,4.25E1,2.5E0,6.05E1,7.25E1,5.95E1,1.785E0,6.15E1,6.6E1,1.5E0,1.185E2,7.15E1,2.5E0,1.185E2,1.185E2,6.15E1,1.055E2,8.85E1,5E-1,2.5E0,8.55E1,2.5E0,1.5E0,5.45E1,1.5E0,5.95E1,7.55E1,5.15E1,5.15E1,5E-1,1.195E2,1.5E0,8.55E1,6.175E1,5E-1,1.125E2,5E-1,1.565E0,1.5E0,5E-1,2.5E0,5E-1,1.785E0,1.005E2,1.625E0,8.1E1,6.75E1,5.3E1,2.5410426E-1,4.85E1,5.85E1,1.445E2,8.25E1,-8.5187204E-2,6.2E1,1.585E0,5E-1,-4.0901873E-1,-3.4237683E-1,-2.7948776E-1,-3.7009563E-2,-3.1198874E-1,-2.3298225E-1,-2.2876924E-1,-1.6802579E-1,-1.1202495E-1,-2.2993937E-1,-1.303647E-1,-1.4355117E-2,2.790532E-1,1.1891962E-1,-7.0545465E-2,2.3012948E-1,-2.7811393E-1,-1.4686053E-1,-1.8665882E-2,-1.0232768E-1,-4.3075126E-2,-3.5756418E-1,1.2917978E-1,2.2872625E-2,1.974356E-1,2.393763E-2,2.7622807E-1,1.4236072E-1,2.8172517E-1,-1.0990927E-1,2.975302E-1,1.8697137E-1,-1.3697344E-2,-1.8681405E-1,8.23291E-2,-2.3004451E-1,1.4136079E-1,-1.2737028E-1,2.3493436E-1,-8.3980985E-2,3.0692998E-1,2.50859E-1,1.0183401E-1,2.395021E-1,-6.714593E-2,-2.2924225E-1,3.1284624E-1,2.6883042E-1,2.4353333E-1,1.0353028E-1,3.420481E-1,1.17142335E-1,1.9912323E-1,3.1090748E-1,2.8166714E-1,-5.5593953E-2,3.0922955E-1,3.407465E-1,2.855624E-1,3.9299625E-1],"split_indices":[4,0,4,6,6,6,4,0,6,0,3,0,2,0,5,7,4,3,7,4,4,0,4,5,8,7,3,7,1,0,7,3,3,0,0,10,4,1,3,3,10,4,10,2,1,10,7,9,2,3,2,5,3,0,0,0,0,4,5,0,5,2,9,0,0,0,0,0,0,0,0,0,0,0,0,0,0,0,0,0,0,0,0,0,0,0,0,0,0,0,0,0,0,0,0,0,0,0,0,0,0,0,0,0,0,0,0,0,0,0,0,0,0,0,0,0,0,0,0,0,0,0,0],"split_type":[0,0,0,0,0,0,0,0,0,0,0,0,0,0,0,0,0,0,0,0,0,0,0,0,0,0,0,0,0,0,0,0,0,0,0,0,0,0,0,0,0,0,0,0,0,0,0,0,0,0,0,0,0,0,0,0,0,0,0,0,0,0,0,0,0,0,0,0,0,0,0,0,0,0,0,0,0,0,0,0,0,0,0,0,0,0,0,0,0,0,0,0,0,0,0,0,0,0,0,0,0,0,0,0,0,0,0,0,0,0,0,0,0,0,0,0,0,0,0,0,0,0,0],"sum_hessian":[1.1846352E4,7.2435146E3,4.6028374E3,4.3336797E3,2.9098347E3,1.6450518E3,2.9577856E3,3.7196177E3,6.14062E2,2.610588E3,2.992468E2,1.3519137E3,2.9313806E2,1.6916527E3,1.266133E3,7.490272E2,2.9705906E3,4.2961853E2,1.8444351E2,1.8814089E3,7.2917896E2,1.5607759E2,1.4316919E2,9.8749225E2,3.6442142E2,2.8844955E2,4.6885004E0,1.4009194E3,2.9073328E2,7.1161566E0,1.2590168E3,7.111589E2,3.786839E1,8.5975146E2,2.1108389E3,2.1185124E2,2.1776727E2,7.6708115E1,1.0773539E2,4.275997E2,1.4538093E3,1.5493867E2,5.742403E2,1.1369362E2,4.238397E1,6.592247E0,1.3657695E2,5.878368E2,3.9965546E2,3.3646567E2,2.795574E1,1.7240791E2,1.1604164E2,2.7265656E0,1.9619347E0,1.260929E3,1.3999042E2,1.8680568E2,1.0392761E2,1.994396E0,5.121761E0,1.0122196E3,2.4679726E2,1.09643875E2,6.01515E2,2.6652632E1,1.1215756E1,5.855253E2,2.7422617E2,1.2667714E3,8.440676E2,4.3541233E1,1.6831001E2,7.758461E1,1.4018266E2,5.0390305E1,2.6317812E1,9.571176E1,1.2023633E1,9.464873E1,3.32951E2,2.9194827E2,1.161861E3,1.5094278E2,3.9958987E0,1.214891E2,4.5275116E2,2.1600895E1,9.209273E1,2.7409393E1,1.4974572E1,1.2121383E0,5.3801084E0,7.5728546E1,6.08484E1,5.503724E2,3.7464394E1,3.9319818E2,6.457272E0,3.2974762E2,6.7180715E0,5.4895496E0,2.246619E1,9.776203E1,7.464589E1,2.5047512E1,9.099413E1,1.2354853E0,1.4910802E0,2.938738E2,9.670552E2,1.15136826E2,2.48536E1,1.8177596E2,5.02972E0,3.062882E1,7.329879E1,3.8731487E0,1.2486122E0,2.4764583E2,7.645738E2,2.3105804E2,1.57392025E1],"tree_param":{"num_deleted":"0","num_feature":"11","num_nodes":"123","size_leaf_vector":"0"}},{"base_weights":[-1.7613845E-2,-3.7632823E-1,5.5830365E-1,-6.0508555E-1,-1.453003E-1,1.8880403E-1,7.694496E-1,-6.743608E-1,-1.9243576E-1,-2.0020166E-1,3.8827267E-1,9.98737E-2,6.203292E-1,7.1178865E-1,8.4950584E-1,-9.1379637E-1,-6.043252E-1,-3.5130695E-1,1.962017E-1,-3.2059175E-1,4.5213494E-3,2.0568055E-1,6.046292E-1,7.0685856E-3,2.5334704E-1,5.4151225E-1,8.000751E-1,6.842914E-1,8.280689E-1,8.7233907E-1,7.5399363E-1,-9.3404907E-1,-5.353292E-1,-7.683994E-1,-5.3567904E-1,-4.845473E-1,-6.398589E-2,5.8638513E-1,-8.6958975E-2,-3.6995673E-1,-4.2588595E-2,-7.196531E-2,1.8381031E-1,1.04345284E-1,7.234635E-1,2.4575678E-1,6.820098E-1,-9.9163435E-2,1.6306886E-1,2.8552926E-1,-3.1564605E-1,6.0868585E-1,-4.19707E-2,-2.9936716E-2,8.4797645E-1,3.177185E-1,6.934351E-1,8.438057E-1,5.253611E-1,7.977804E-1,8.994339E-1,4.9365887E-1,7.8102756E-1,-1.0441862E0,-8.6325467E-1,-6.04672E-1,6.979985E-1,-7.8802454E-1,-1.648607E-1,-5.839886E-1,-3.5483202E-1,-6.353527E-1,-3.4945762E-1,-5.603217E-1,1.3306335E-4,7.445707E-1,2.6423115E-1,-6.3470453E-1,6.6669375E-2,-5.336136E-1,-3.1953418E-1,2.7393913E-1,-1.3682958E-1,-1.7606749E-1,1.6147025E-1,1.5285677E-1,5.78134E-1,3.4945384E-1,-5.6453466E-2,1.2331555E0,3.1798118E-1,-1.8410219E-2,9.044616E-1,7.72328E-1,4.4187793E-1,-6.13657E-2,-5.916166E-1,1.9068722E-1,-4.737502E-1,-2.9132718E-1,3.1188592E-1,-1.0230203E0,8.991795E-2,7.477796E-1,4.0858656E-1,1.5836947E-1,-8.155597E-1,9.1895217E-1,-6.649712E-1,9.660266E-1,6.23005E-1,1.0835123E0,1.8034491E-1,-7.5452685E-2,6.971074E-1,2.917994E-1,8.473903E-1,6.340237E-1,-1.4595912E-1,6.739066E-1,9.384213E-1,9.9559927E-1,8.635702E-1,1.3085327E-1,8.235041E-1,8.628048E-1,6.723482E-1],"categories":[],"categories_nodes":[],"categories_segments":[],"categories_sizes":[],"default_left":[true,true,true,true,true,true,true,true,true,true,true,true,true,true,true,true,true,true,true,true,true,true,true,true,true,true,true,true,true,true,true,true,true,true,true,true,true,true,true,true,true,true,true,true,true,true,true,true,true,true,true,true,true,true,true,true,true,true,true,true,true,true,true,false,false,false,false,false,false,false,false,false,false,false,false,false,false,false,false,false,false,false,false,false,false,false,false,false,false,false,false,false,false,false,false,false,false,false,false,false,false,false,false,false,false,false,false,false,false,false,false,false,false,false,false,false,false,false,false,false,false,false,false,false,false,false,false],"id":2,"left_children":[1,3,5,7,9,11,13,15,17,19,21,23,25,27,29,31,33,35,37,39,41,43,45,47,49,51,53,55,57,59,61,63,65,67,69,71,73,75,77,79,81,83,85,87,89,91,93,95,97,99,101,103,105,107,109,111,113,115,117,119,121,123,125,-1,-1,-1,-1,-1,-1,-1,-1,-1,-1,-1,-1,-1,-1,-1,-1,-1,-1,-1,-1,-1,-1,-1,-1,-1,-1,-1,-1,-1,-1,-1,-1,-1,-1,-1,-1,-1,-1,-1,-1,-1,-1,-1,-1,-1,-1,-1,-1,-1,-1,-1,-1,-1,-1,-1,-1,-1,-1,-1,-1,-1,-1,-1,-1],"loss_changes":[2.3395837E3,3.6870868E2,3.389607E2,1.0009546E2,1.0182174E2,6.0643875E1,1.2161865E1,4.9782837E1,3.1272932E1,7.7634514E1,1.2689953E1,1.8696259E1,3.3933334E0,4.593384E0,1.8562622E0,4.6918335E0,2.5778564E1,1.3716095E1,1.6324177E1,2.720456E1,1.602177E1,9.234091E0,3.9407616E0,1.35906925E1,9.148172E0,7.5063934E0,3.2156563E0,4.173767E0,1.004303E0,1.1490479E0,1.2316132E0,4.1011963E0,3.5648336E0,7.967041E0,1.4144562E1,4.772743E0,3.6573052E0,2.966278E0,7.2977195E0,1.3727829E1,8.993118E0,1.9931269E1,4.175972E0,5.9141846E0,5.5749454E0,4.854944E0,2.2860222E0,9.045402E0,5.9331446E0,7.2171364E0,7.825121E0,4.4600563E0,3.3280027E0,3.8312845E0,1.4138222E0,3.3550768E0,3.6617432E0,3.2107544E-1,1.3813076E0,3.8123474E0,1.4504395E0,2.8043394E0,1.2547073E0,0E0,0E0,0E0,0E0,0E0,0E0,0E0,0E0,0E0,0E0,0E0,0E0,0E0,0E0,0E0,0E0,0E0,0E0,0E0,0E0,0E0,0E0,0E0,0E0,0E0,0E0,0E0,0E0,0E0,0E0,0E0,0E0,0E0,0E0,0E0,0E0,0E0,0E0,0E0,0E0,0E0,0E0,0E0,0E0,0E0,0E0,0E0,0E0,0E0,0E0,0E0,0E0,0E0,0E0,0E0,0E0,0E0,0E0,0E0,0E0,0E0,0E0,0E0,0E0],"parents":[2147483647,0,0,1,1,2,2,3,3,4,4,5,5,6,6,7,7,8,8,9,9,10,10,11,11,12,12,13,13,14,14,15,15,16,16,17,17,18,18,19,19,20,20,21,21,22,22,23,23,24,24,25,25,26,26,27,27,28,28,29,29,30,30,31,31,32,32,33,33,34,34,35,35,36,36,37,37,38,38,39,39,40,40,41,41,42,42,43,43,44,44,45,45,46,46,47,47,48,48,49,49,50,50,51,51,52,52,53,53,54,54,55,55,56,56,57,57,58,58,59,59,60,60,61,61,62,62],"right_children":[2,4,6,8,10,12,14,16,18,20,22,24,26,28,30,32,34,36,38,40,42,44,46,48,50,52,54,56,58,60,62,64,66,68,70,72,74,76,78,80,82,84,86,88,90,92,94,96,98,100,102,104,106,108,110,112,114,116,118,120,122,124,126,-1,-1,-1,-1,-1,-1,-1,-1,-1,-1,-1,-1,-1,-1,-1,-1,-1,-1,-1,-1,-1,-1,-1,-1,-1,-1,-1,-1,-1,-1,-1,-1,-1,-1,-1,-1,-1,-1,-1,-1,-1,-1,-1,-1,-1,-1,-1,-1,-1,-1,-1,-1,-1,-1,-1,-1,-1,-1,-1,-1,-1,-1,-1,-1],"split_conditions":[1.295E2,5.35E1,1.345E2,1.5E0,2.5E0,2.5E0,1.495E2,4.25E1,2.5E0,5.95E1,5.95E1,5.75E1,8.45E1,6.05E1,1.5E0,1.5E0,1.185E2,7.85E1,2.5E0,8.265E1,7.55E1,8.65E1,6.35E1,8.55E1,5E-1,8.15E1,1.535E0,1.385E2,5E-1,1.595E0,1.545E0,1.145E2,9.75E1,9.25E1,7.95E1,1.195E2,4.15E1,1.5E0,1.175E2,1.185E2,5E-1,6.25E1,9.75E1,2.5E0,1.635E0,6.35E1,8.35E1,1.755E0,1.765E0,5.75E1,7.35E1,2.5E0,1.715E0,9.05E1,8.7E1,1.545E0,5.25E1,6.25E1,2.5E0,5.75E1,1.635E0,1.555E2,1.57E2,-3.1325588E-1,-2.589764E-1,-1.8140161E-1,2.0939957E-1,-2.3640737E-1,-4.945821E-2,-1.7519659E-1,-1.0644961E-1,-1.906058E-1,-1.0483729E-1,-1.6809651E-1,3.9919007E-5,2.2337121E-1,7.926935E-2,-1.9041137E-1,2.0000814E-2,-1.600841E-1,-9.586026E-2,8.2181744E-2,-4.1048877E-2,-5.2820247E-2,4.844108E-2,4.585703E-2,1.734402E-1,1.0483616E-1,-1.6936041E-2,3.6994666E-1,9.539436E-2,-5.523066E-3,2.713385E-1,2.3169841E-1,1.3256338E-1,-1.840971E-2,-1.7748497E-1,5.720617E-2,-1.4212507E-1,-8.739816E-2,9.356578E-2,-3.069061E-1,2.6975386E-2,2.243339E-1,1.22575976E-1,4.7510844E-2,-2.4466792E-1,2.7568567E-1,-1.9949137E-1,2.89808E-1,1.869015E-1,3.250537E-1,5.4103475E-2,-2.2635806E-2,2.0913222E-1,8.753982E-2,2.542171E-1,1.9020712E-1,-4.378774E-2,2.02172E-1,2.8152642E-1,2.986798E-1,2.5907108E-1,3.925598E-2,2.4705124E-1,2.5884145E-1,2.0170447E-1],"split_indices":[4,0,4,6,6,6,4,0,6,0,0,0,3,0,7,7,4,3,7,3,3,3,3,5,9,3,2,4,9,2,2,4,3,3,3,4,0,1,4,4,10,0,3,7,2,0,3,2,2,3,3,7,2,3,5,2,3,5,7,0,2,4,4,0,0,0,0,0,0,0,0,0,0,0,0,0,0,0,0,0,0,0,0,0,0,0,0,0,0,0,0,0,0,0,0,0,0,0,0,0,0,0,0,0,0,0,0,0,0,0,0,0,0,0,0,0,0,0,0,0,0,0,0,0,0,0,0],"split_type":[0,0,0,0,0,0,0,0,0,0,0,0,0,0,0,0,0,0,0,0,0,0,0,0,0,0,0,0,0,0,0,0,0,0,0,0,0,0,0,0,0,0,0,0,0,0,0,0,0,0,0,0,0,0,0,0,0,0,0,0,0,0,0,0,0,0,0,0,0,0,0,0,0,0,0,0,0,0,0,0,0,0,0,0,0,0,0,0,0,0,0,0,0,0,0,0,0,0,0,0,0,0,0,0,0,0,0,0,0,0,0,0,0,0,0,0,0,0,0,0,0,0,0,0,0,0,0],"sum_hessian":[1.1322757E4,6.977264E3,4.3454927E3,3.5050466E3,3.4722175E3,1.5808833E3,2.7646091E3,3.0006636E3,5.0438293E2,3.1488455E3,3.233719E2,1.3117786E3,2.691048E2,1.6128427E3,1.1517666E3,6.763463E2,2.3243174E3,3.5809375E2,1.4628917E2,1.9824647E3,1.1663809E3,1.7642786E2,1.4694402E2,8.1811285E2,4.9366565E2,1.8986389E2,7.92409E1,1.3099569E3,3.0288568E2,9.229842E2,2.2878244E2,6.405983E2,3.5747955E1,6.826027E2,1.6417147E3,2.4417516E2,1.13918594E2,6.10685E1,8.5220665E1,1.6832411E3,2.9922363E2,8.180081E2,3.4837274E2,1.4855557E2,2.7872282E1,2.680499E1,1.2013903E2,4.8690674E2,3.3120612E2,4.6771017E2,2.5955465E1,1.7022366E2,1.9640234E1,4.344059E0,7.4896835E1,3.2749878E1,1.277207E3,2.8621863E2,1.666706E1,2.5412773E2,6.6885645E2,2.3334455E1,2.0544798E2,2.4527165E2,3.953267E2,3.4327637E1,1.4203186E0,6.608097E2,2.1793024E1,1.293858E3,3.478567E2,1.13626595E2,1.3054857E2,1.2147527E1,1.0177107E2,4.007799E1,2.0990509E1,1.7980759E1,6.723991E1,3.9420013E2,1.2890409E3,6.821219E1,2.3101144E2,5.65891E2,2.5211717E2,3.2430328E2,2.4069454E1,5.8385E1,9.017058E1,1.1444861E1,1.6427422E1,1.9826015E1,6.9789753E0,8.5692276E1,3.4446754E1,4.5324313E2,3.3663597E1,3.1811047E2,1.3095646E1,1.9996767E1,4.477134E2,8.90359E0,1.7051874E1,9.880495E1,7.141871E1,1.6231867E1,3.4083674E0,1.5623922E0,2.7816668E0,4.6960873E1,2.7935965E1,3.933745E0,2.8816132E1,5.97822E0,1.2712288E3,2.378312E0,2.838403E2,1.4392921E1,2.2741387E0,1.3819762E2,1.1593011E2,1.744155E2,4.9444095E2,1.1777157E1,1.1557299E1,1.1327431E2,9.2173676E1],"tree_param":{"num_deleted":"0","num_feature":"11","num_nodes":"127","size_leaf_vector":"0"}},{"base_weights":[-1.2188738E-2,-2.7761766E-1,4.2376426E-1,-4.6887675E-1,-1.0872414E-1,1.3570772E-1,6.0095274E-1,-5.243282E-1,-1.4994645E-1,-1.483753E-1,2.8919262E-1,3.5891645E-2,3.5986415E-1,5.478365E-1,6.768476E-1,-7.377132E-1,-4.6227977E-1,-2.6239318E-1,1.3069417E-1,-2.3332208E-1,3.3177824E-3,1.6227426E-1,4.8101774E-1,-6.990502E-2,1.3552344E-1,2.6343066E-1,5.7137966E-1,5.245264E-1,6.623844E-1,1.09628245E-1,6.803371E-1,-7.814542E-1,-5.3382415E-1,-7.442617E-1,-4.2485085E-1,-4.555174E-1,-1.0029504E-1,4.2569673E-1,-7.245929E-2,-4.0173522E-1,-1.7463562E-1,7.8368716E-2,-1.3188006E-1,-1.0088356E-1,3.2564804E-1,-3.3454505E-1,5.247448E-1,-4.3571925E-1,-3.289384E-2,5.538074E-1,1.1357E-1,9.799889E-2,4.084105E-1,-6.9272447E-1,5.865928E-1,6.3622594E-1,4.9265996E-1,7.2992235E-1,5.374666E-1,3.7705195E-1,-5.538979E-1,6.947478E-1,5.2014655E-1,-9.589323E-1,-7.407219E-1,-7.703333E-1,-2.9703507E-1,-8.821729E-1,-6.3807344E-1,-4.4643158E-1,-7.4377626E-2,-3.5025242E-1,-7.0281744E-1,-1.3740945E-1,4.8152572E-1,2.4949204E-2,5.4783124E-1,-1.1392652E0,-4.0661925E-3,-3.6437425E-1,-9.5954597E-1,2.5903536E-2,-2.2684424E-1,-1.3095568E-1,1.4010479E-1,-2.7381524E-1,8.760906E-2,7.8088546E-1,-2.535699E-1,3.5073718E-1,-7.242765E-1,3.7796363E-1,-6.5378064E-1,5.885125E-1,2.3989622E-1,1.1751286E0,-5.0365186E-1,1.9906592E-1,-9.066892E-2,6.59071E-1,-3.025359E-1,-1.3221675E-1,1.6001925E-1,-7.1704495E-1,1.5051733E-1,4.6008602E-1,-1.4396413E-1,8.216684E-1,5.168368E-1,6.6479295E-1,2.0350857E-1,1.4809176E-1,5.034383E-1,7.472378E-1,1.1607285E-1,5.927481E-1,6.642319E-2,6.1583E-1,-2.9301953E-1,6.2821597E-1,7.272112E-1,6.391364E-1,2.667192E-1],"categories":[],"categories_nodes":[],"categories_segments":[],"categories_sizes":[],"default_left":[true,true,true,true,true,true,true,true,true,true,true,true,true,true,true,true,true,true,true,true,true,true,true,true,true,true,true,true,true,true,true,true,true,true,true,true,true,true,true,true,true,true,true,true,true,true,true,true,true,true,true,true,true,false,true,true,true,true,true,true,false,true,true,false,false,false,false,false,false,false,false,false,false,false,false,false,false,false,false,false,false,false,false,false,false,false,false,false,false,false,false,false,false,false,false,false,false,false,false,false,false,false,false,false,false,false,false,false,false,false,false,false,false,false,false,false,false,false,false,false,false,false,false],"id":3,"left_children":[1,3,5,7,9,11,13,15,17,19,21,23,25,27,29,31,33,35,37,39,41,43,45,47,49,51,53,55,57,59,61,63,65,67,69,71,73,75,77,79,81,83,85,87,89,91,93,95,97,99,101,103,105,-1,107,109,111,113,115,117,-1,119,121,-1,-1,-1,-1,-1,-1,-1,-1,-1,-1,-1,-1,-1,-1,-1,-1,-1,-1,-1,-1,-1,-1,-1,-1,-1,-1,-1,-1,-1,-1,-1,-1,-1,-1,-1,-1,-1,-1,-1,-1,-1,-1,-1,-1,-1,-1,-1,-1,-1,-1,-1,-1,-1,-1,-1,-1,-1,-1,-1,-1],"loss_changes":[1.2492092E3,2.1670227E2,2.0844214E2,5.556604E1,5.6286488E1,3.4829475E1,9.825134E0,3.5142456E1,1.4785032E1,4.178119E1,7.794592E0,1.137833E1,9.63353E0,3.6394653E0,1.9781494E0,4.952179E0,2.1625366E1,1.0411749E1,8.084388E0,2.0472412E1,1.1830204E1,8.464423E0,4.7491837E0,7.076956E0,5.0409555E0,7.9065E0,3.278572E0,4.1197815E0,1.7056198E0,1.5455455E0,2.0176086E0,2.8576355E0,5.903591E0,2.9852142E0,1.3865753E1,3.7147121E0,4.015595E0,2.6757364E0,5.863957E0,1.0827873E1,1.6162106E1,9.7066E0,1.2989855E1,1.0414173E1,3.4475355E0,1.8704584E0,2.0768738E0,5.848916E0,6.4067855E0,2.6745634E0,6.0645227E0,6.7881365E0,5.097452E0,0E0,2.0041847E0,3.239624E0,3.5407562E0,1.5991516E0,2.3317451E0,1.1347041E0,0E0,1.5788574E0,2.5144234E0,0E0,0E0,0E0,0E0,0E0,0E0,0E0,0E0,0E0,0E0,0E0,0E0,0E0,0E0,0E0,0E0,0E0,0E0,0E0,0E0,0E0,0E0,0E0,0E0,0E0,0E0,0E0,0E0,0E0,0E0,0E0,0E0,0E0,0E0,0E0,0E0,0E0,0E0,0E0,0E0,0E0,0E0,0E0,0E0,0E0,0E0,0E0,0E0,0E0,0E0,0E0,0E0,0E0,0E0,0E0,0E0,0E0,0E0,0E0,0E0],"parents":[2147483647,0,0,1,1,2,2,3,3,4,4,5,5,6,6,7,7,8,8,9,9,10,10,11,11,12,12,13,13,14,14,15,15,16,16,17,17,18,18,19,19,20,20,21,21,22,22,23,23,24,24,25,25,26,26,27,27,28,28,29,29,30,30,31,31,32,32,33,33,34,34,35,35,36,36,37,37,38,38,39,39,40,40,41,41,42,42,43,43,44,44,45,45,46,46,47,47,48,48,49,49,50,50,51,51,52,52,54,54,55,55,56,56,57,57,58,58,59,59,61,61,62,62],"right_children":[2,4,6,8,10,12,14,16,18,20,22,24,26,28,30,32,34,36,38,40,42,44,46,48,50,52,54,56,58,60,62,64,66,68,70,72,74,76,78,80,82,84,86,88,90,92,94,96,98,100,102,104,106,-1,108,110,112,114,116,118,-1,120,122,-1,-1,-1,-1,-1,-1,-1,-1,-1,-1,-1,-1,-1,-1,-1,-1,-1,-1,-1,-1,-1,-1,-1,-1,-1,-1,-1,-1,-1,-1,-1,-1,-1,-1,-1,-1,-1,-1,-1,-1,-1,-1,-1,-1,-1,-1,-1,-1,-1,-1,-1,-1,-1,-1,-1,-1,-1,-1,-1,-1],"split_conditions":[1.295E2,5.25E1,1.345E2,1.5E0,2.5E0,1.5E0,1.495E2,4.25E1,2.5E0,5.95E1,7.55E1,5.45E1,8.35E1,6.15E1,6.6E1,7.95E1,5.95E1,7.09E1,2.5E0,6.425E1,1.5E0,5.75E1,1.055E2,7.95E1,1.525E0,2.5E0,3.95E1,4.85E1,1.5E0,1.5E0,2.5E0,5.95E1,4.05E1,1.185E2,1.5E0,1.5E0,8.45E1,7.7E1,1.08E2,5E-1,5E-1,1.185E2,7.45E1,1.555E0,5E-1,1.5699999E0,1.715E0,1.535E0,5E-1,1.5E0,6.37E1,1.525E0,8.15E1,-2.0781735E-1,5E-1,2.5E0,7.95E1,1.445E2,2.5E0,6.2E1,-1.6616938E-1,7.01E1,1.665E0,-2.876797E-1,-2.2221658E-1,-2.311E-1,-8.911052E-2,-2.6465186E-1,-1.9142205E-1,-1.3392948E-1,-2.231329E-2,-1.0507573E-1,-2.1084525E-1,-4.1222837E-2,1.4445773E-1,7.4847615E-3,1.6434938E-1,-3.4177956E-1,-1.2198578E-3,-1.0931228E-1,-2.878638E-1,7.7710613E-3,-6.8053275E-2,-3.9286707E-2,4.2031437E-2,-8.214457E-2,2.6282718E-2,2.3426564E-1,-7.607097E-2,1.0522116E-1,-2.1728295E-1,1.133891E-1,-1.961342E-1,1.7655376E-1,7.196887E-2,3.525386E-1,-1.5109557E-1,5.971978E-2,-2.7200677E-2,1.9772132E-1,-9.076077E-2,-3.966503E-2,4.800578E-2,-2.1511349E-1,4.51552E-2,1.380258E-1,-4.318924E-2,2.4650052E-1,1.5505105E-1,1.994379E-1,6.1052572E-2,4.442753E-2,1.510315E-1,2.2417136E-1,3.4821857E-2,1.7782444E-1,1.9926958E-2,1.84749E-1,-8.790586E-2,1.884648E-1,2.1816336E-1,1.9174092E-1,8.001576E-2],"split_indices":[4,0,4,6,6,6,4,0,6,0,3,0,3,0,5,3,3,3,7,3,1,0,4,5,2,6,0,0,1,1,7,3,0,4,7,7,5,5,4,8,10,4,3,2,9,2,2,2,10,7,3,2,3,0,10,7,5,4,7,5,0,3,2,0,0,0,0,0,0,0,0,0,0,0,0,0,0,0,0,0,0,0,0,0,0,0,0,0,0,0,0,0,0,0,0,0,0,0,0,0,0,0,0,0,0,0,0,0,0,0,0,0,0,0,0,0,0,0,0,0,0,0,0],"split_type":[0,0,0,0,0,0,0,0,0,0,0,0,0,0,0,0,0,0,0,0,0,0,0,0,0,0,0,0,0,0,0,0,0,0,0,0,0,0,0,0,0,0,0,0,0,0,0,0,0,0,0,0,0,0,0,0,0,0,0,0,0,0,0,0,0,0,0,0,0,0,0,0,0,0,0,0,0,0,0,0,0,0,0,0,0,0,0,0,0,0,0,0,0,0,0,0,0,0,0,0,0,0,0,0,0,0,0,0,0,0,0,0,0,0,0,0,0,0,0,0,0,0,0],"sum_hessian":[1.0793597E4,6.709125E3,4.0844714E3,3.1454106E3,3.5637146E3,1.5562427E3,2.5282288E3,2.6789807E3,4.6642987E2,3.241351E3,3.2236343E2,1.0775663E3,4.786764E2,1.4921447E3,1.036084E3,6.0105536E2,2.0779253E3,3.3304916E2,1.333807E2,2.077456E3,1.163895E3,1.9511458E2,1.2724884E2,5.227591E2,5.5480725E2,3.3032233E2,1.4835406E2,1.2444773E3,2.4766736E2,6.533123E0,1.0295509E3,4.9255347E2,1.0850186E2,2.4128069E2,1.8366447E3,1.5115387E2,1.8189531E2,5.3947372E1,7.943333E1,5.3534E2,1.5421161E3,7.4869836E2,4.151966E2,7.488096E1,1.2023362E2,6.1369314E0,1.2111191E2,4.7040783E1,4.757183E2,2.6458622E1,5.2834863E2,1.5506204E2,1.7526027E2,1.2345806E0,1.4711949E2,2.7201926E2,9.7245807E2,1.5761052E2,9.005684E1,4.964147E0,1.5689758E0,9.4151526E2,8.803562E1,8.773476E1,4.0481873E2,5.315573E1,5.5346134E1,1.0178302E2,1.3949767E2,1.7298535E3,1.06791176E2,1.0771888E2,4.3434986E1,1.71706E2,1.0189315E1,1.2882295E1,4.1065075E1,3.842339E0,7.559099E1,5.0328433E2,3.205568E1,3.1864993E2,1.2234662E3,1.7026634E2,5.7843207E2,2.5199416E2,1.6320244E2,1.0445208E1,6.443575E1,1.1807795E2,2.1556697E0,1.8419284E0,4.295003E0,9.8087494E1,2.3024412E1,1.2440025E0,4.579678E1,9.4373764E1,3.813445E2,2.376744E1,2.691182E0,8.368452E1,4.446641E2,8.6208105E0,1.4644122E2,1.6041982E2,1.4840452E1,3.1199373E1,1.1592011E2,2.5467018E2,1.734907E1,2.9943596E1,9.425145E2,1.5307529E2,4.5352316E0,8.036666E1,9.69018E0,3.71962E0,1.2445272E0,3.1542407E2,6.260912E2,5.8871952E1,2.9163673E1],"tree_param":{"num_deleted":"0","num_feature":"11","num_nodes":"123","size_leaf_vector":"0"}},{"base_weights":[-8.571564E-3,-1.4638413E-1,4.668876E-1,-2.9399508E-1,-3.2581877E-2,4.1941816E-1,5.368317E-1,-3.5464275E-1,4.659358E-2,-8.926316E-2,1.6624054E-1,3.7978294E-1,4.829598E-1,5.588539E-1,4.4919917E-1,-5.163067E-1,-2.8093857E-1,-3.0889226E-2,2.7922305E-1,-1.2318441E-1,1.5992229E-1,1.0482527E-1,3.6529082E-1,3.9599782E-1,-2.3595165E-1,5.488823E-1,3.714074E-1,6.6270417E-1,5.344027E-1,4.1854426E-1,8.6167985E-1,-7.75767E-1,-4.6573558E-1,-3.2868865E-1,6.33642E-3,2.0593149E-3,-5.991953E-1,1.6724499E-1,5.309017E-1,-9.5829464E-2,-4.7693384E-1,2.1405016E-1,-2.8886715E-2,-6.500268E-1,1.2166449E-1,4.7580558E-1,1.4985088E-1,3.2352295E-2,4.0595973E-1,-6.330707E-1,3.2560632E-1,3.5954097E-1,5.911226E-1,3.4972382E-1,9.2344165E-1,6.1181378E-2,6.924243E-1,5.432113E-1,2.3025976E-2,4.9228877E-1,2.784486E-1,1.0076717E0,4.7551218E-1,-1.2309041E-1,-7.953244E-1,-6.246197E-1,-3.8177317E-1,-2.959457E-1,-6.538017E-1,-1.0478908E-1,2.8830254E-1,1.2854274E-1,-1.3004698E-1,-4.021463E-1,-1.0700116E0,3.3993953E-1,-1.8072172E-1,8.657331E-1,1.9173178E-1,-1.2446712E-1,1.5571219E-1,-7.784697E-1,-3.3821952E-1,7.921599E-2,4.5346642E-1,-1.4067614E-1,3.0684823E-1,-7.908653E-1,5.426025E-1,-7.113955E-2,1.6315795E-1,1.6962874E-1,5.411021E-1,4.0399945E-1,1.8810952E-2,-6.570583E-2,8.7707955E-1,4.6870074E-1,3.4524512E-1,2.842111E-1,-8.3492965E-1,-9.0731317E-1,7.114336E-1,-1.046798E-2,4.8824137E-1,6.2205464E-1,2.844912E-1,1.9224775E-1,4.1702667E-1,1.1671804E0,-1.11993834E-1,5.9795356E-1,-1.3710579E0,1.0452743E0,5.814791E-1,5.1701415E-1,7.313595E-1,3.7495065E-1,-9.7772694E-1,-1.2753072E-1,5.213828E-1,3.8250896E-1,-3.5255352E-1,-3.040821E-1,9.295166E-1],"categories":[],"categories_nodes":[],"categories_segments":[],"categories_sizes":[],"default_left":[true,true,true,true,true,true,true,true,true,true,true,true,true,true,true,true,true,true,true,true,true,true,true,true,true,true,true,true,true,true,true,true,true,true,true,true,true,true,true,true,true,true,true,true,true,true,true,true,true,true,true,true,true,true,true,true,true,true,true,true,true,false,true,false,false,false,false,false,false,false,false,false,false,false,false,false,false,false,false,false,false,false,false,false,false,false,false,false,false,false,false,false,false,false,false,false,false,false,false,false,false,false,false,false,false,false,false,false,false,false,false,false,false,false,false,false,false,false,false,false,false,false,false,false,false],"id":4,"left_children":[1,3,5,7,9,11,13,15,17,19,21,23,25,27,29,31,33,35,37,39,41,43,45,47,49,51,53,55,57,59,61,63,65,67,69,71,73,75,77,79,81,83,85,87,89,91,93,95,97,99,101,103,105,107,109,111,113,115,117,119,121,-1,123,-1,-1,-1,-1,-1,-1,-1,-1,-1,-1,-1,-1,-1,-1,-1,-1,-1,-1,-1,-1,-1,-1,-1,-1,-1,-1,-1,-1,-1,-1,-1,-1,-1,-1,-1,-1,-1,-1,-1,-1,-1,-1,-1,-1,-1,-1,-1,-1,-1,-1,-1,-1,-1,-1,-1,-1,-1,-1,-1,-1,-1,-1],"loss_changes":[6.7752124E2,1.3465334E2,7.4895935E0,7.209918E1,5.1039795E1,3.3141327E0,1.5549622E0,3.515204E1,9.532146E0,2.9806263E1,1.2244869E1,8.679153E0,3.6922226E0,1.5345459E0,2.080288E0,1.17947235E1,2.7942871E1,7.4395947E0,3.6344461E0,2.997419E1,4.325734E0,9.857307E0,5.5599537E0,3.023529E0,5.2664557E0,2.4340897E0,2.0697079E0,2.4172668E0,2.7226562E0,1.7394218E0,2.2046185E-1,1.8118896E0,1.01380005E1,1.8399292E1,9.157452E0,6.3072996E0,1.589602E0,5.643464E0,4.401618E0,2.0771639E1,9.0400505E0,1.0572113E1,3.6106682E0,3.2751665E0,6.0382586E0,3.024311E0,2.711641E0,1.9990368E0,2.9458466E0,2.7613225E0,5.4309754E0,3.0009775E0,2.3744736E0,1.9753361E0,1.8834949E0,6.6430936E0,4.520809E0,2.5638885E0,4.3556485E0,2.18886E0,4.3989453E0,0E0,2.1578178E0,0E0,0E0,0E0,0E0,0E0,0E0,0E0,0E0,0E0,0E0,0E0,0E0,0E0,0E0,0E0,0E0,0E0,0E0,0E0,0E0,0E0,0E0,0E0,0E0,0E0,0E0,0E0,0E0,0E0,0E0,0E0,0E0,0E0,0E0,0E0,0E0,0E0,0E0,0E0,0E0,0E0,0E0,0E0,0E0,0E0,0E0,0E0,0E0,0E0,0E0,0E0,0E0,0E0,0E0,0E0,0E0,0E0,0E0,0E0,0E0,0E0,0E0],"parents":[2147483647,0,0,1,1,2,2,3,3,4,4,5,5,6,6,7,7,8,8,9,9,10,10,11,11,12,12,13,13,14,14,15,15,16,16,17,17,18,18,19,19,20,20,21,21,22,22,23,23,24,24,25,25,26,26,27,27,28,28,29,29,30,30,31,31,32,32,33,33,34,34,35,35,36,36,37,37,38,38,39,39,40,40,41,41,42,42,43,43,44,44,45,45,46,46,47,47,48,48,49,49,50,50,51,51,52,52,53,53,54,54,55,55,56,56,57,57,58,58,59,59,60,60,62,62],"right_children":[2,4,6,8,10,12,14,16,18,20,22,24,26,28,30,32,34,36,38,40,42,44,46,48,50,52,54,56,58,60,62,64,66,68,70,72,74,76,78,80,82,84,86,88,90,92,94,96,98,100,102,104,106,108,110,112,114,116,118,120,122,-1,124,-1,-1,-1,-1,-1,-1,-1,-1,-1,-1,-1,-1,-1,-1,-1,-1,-1,-1,-1,-1,-1,-1,-1,-1,-1,-1,-1,-1,-1,-1,-1,-1,-1,-1,-1,-1,-1,-1,-1,-1,-1,-1,-1,-1,-1,-1,-1,-1,-1,-1,-1,-1,-1,-1,-1,-1,-1,-1,-1,-1,-1,-1],"split_conditions":[1.345E2,5.25E1,1.495E2,1.295E2,1.5E0,1.5E0,1.5E0,1.185E2,1.5E0,6.25E1,6.15E1,1.435E2,1.5E0,5E-1,5E-1,4.15E1,1.5E0,1.765E0,8.45E1,5E-1,1.695E0,5.45E1,1.5E0,1.375E2,1.5E0,5E-1,1.435E2,4.25E1,1.035E2,9.15E1,5.95E1,5.375E1,6.45E1,5E-1,8.05E1,4.85E1,5E-1,1.5E0,1.655E0,8.45E1,6.85E1,1.645E0,1.245E2,8.75E1,1.105E2,7.95E1,1.665E0,6.25E1,5.45E1,4.8E1,4.85E1,1.585E0,9.2E1,5.35E1,9.25E1,1.715E0,5.05E1,2.5E0,1.745E0,7.2E1,6.25E1,3.0230153E-1,8.05E1,-3.6927123E-2,-2.3859732E-1,-1.8738592E-1,-1.1453196E-1,-8.878371E-2,-1.9614051E-1,-3.1436726E-2,8.6490765E-2,3.8562823E-2,-3.9014094E-2,-1.206439E-1,-3.210035E-1,1.0198186E-1,-5.4216515E-2,2.5971994E-1,5.7519536E-2,-3.7340138E-2,4.6713658E-2,-2.3354091E-1,-1.0146586E-1,2.3764798E-2,1.3603993E-1,-4.2202845E-2,9.205447E-2,-2.372596E-1,1.6278075E-1,-2.1341866E-2,4.894739E-2,5.0888624E-2,1.6233064E-1,1.2119984E-1,5.643286E-3,-1.971175E-2,2.6312387E-1,1.4061023E-1,1.0357354E-1,8.5263334E-2,-2.504789E-1,-2.7219397E-1,2.1343009E-1,-3.140394E-3,1.4647242E-1,1.8661639E-1,8.534737E-2,5.7674326E-2,1.25108E-1,3.5015413E-1,-3.359815E-2,1.7938608E-1,-4.1131738E-1,3.135823E-1,1.7444372E-1,1.5510425E-1,2.1940786E-1,1.124852E-1,-2.933181E-1,-3.825922E-2,1.5641485E-1,1.14752695E-1,-1.0576606E-1,-9.122463E-2,2.78855E-1],"split_indices":[4,0,4,4,6,6,7,4,6,0,0,4,7,10,9,0,6,2,3,8,2,3,1,4,1,10,4,0,3,5,0,3,3,8,3,0,8,7,2,5,3,2,4,5,4,5,2,0,0,0,0,2,5,0,5,2,0,6,2,5,0,0,3,0,0,0,0,0,0,0,0,0,0,0,0,0,0,0,0,0,0,0,0,0,0,0,0,0,0,0,0,0,0,0,0,0,0,0,0,0,0,0,0,0,0,0,0,0,0,0,0,0,0,0,0,0,0,0,0,0,0,0,0,0,0],"split_type":[0,0,0,0,0,0,0,0,0,0,0,0,0,0,0,0,0,0,0,0,0,0,0,0,0,0,0,0,0,0,0,0,0,0,0,0,0,0,0,0,0,0,0,0,0,0,0,0,0,0,0,0,0,0,0,0,0,0,0,0,0,0,0,0,0,0,0,0,0,0,0,0,0,0,0,0,0,0,0,0,0,0,0,0,0,0,0,0,0,0,0,0,0,0,0,0,0,0,0,0,0,0,0,0,0,0,0,0,0,0,0,0,0,0,0,0,0,0,0,0,0,0,0,0,0],"sum_hessian":[1.0337966E4,8.015386E3,2.3225798E3,3.488687E3,4.526699E3,1.3877458E3,9.3483405E2,2.9613298E3,5.2735706E2,3.5229187E3,1.00378033E3,8.589421E2,5.288037E2,7.427915E2,1.9204254E2,9.25443E2,2.0358868E3,3.962453E2,1.3111174E2,3.1012551E3,4.2166367E2,7.6826526E2,2.3551506E2,8.372506E2,2.1691486E1,3.29917E2,1.9888672E2,1.3658363E2,6.062079E2,1.806329E2,1.1409645E1,1.4861545E2,7.768276E2,1.7455947E3,2.902922E2,3.7547296E2,2.0772327E1,9.1891464E1,3.9220284E1,2.8798325E3,2.2142255E2,3.276104E2,9.405324E1,1.5943938E1,7.523213E2,1.5486504E2,8.065003E1,2.2437788E1,8.148128E2,1.2631485E1,9.060002E0,6.191154E1,2.6800546E2,1.929416E2,5.9451113E0,6.574623E0,1.3000902E2,5.958815E2,1.0326425E1,1.1669319E2,6.393971E1,7.11165E0,4.2979946E0,4.535881E0,1.4407956E2,2.663561E2,5.1047147E2,1.5876125E3,1.579821E2,2.0867844E2,8.161377E1,1.9183247E2,1.8364049E2,1.5950691E1,4.821636E0,6.1428032E1,3.0463432E1,1.8955118E1,2.0265165E1,2.585933E3,2.9389957E2,6.8312805E1,1.5310974E2,2.10431E2,1.1717942E2,7.0995056E1,2.3058184E1,1.456126E1,1.382678E0,1.3310757E2,6.1921375E2,2.7854155E1,1.2701087E2,2.6728252E1,5.392178E1,2.0930355E1,1.5074332E0,3.9741455E2,4.173983E2,2.20475E0,1.0426735E1,1.8372917E0,7.2227106E0,1.62144E1,4.5697144E1,2.4251283E2,2.5492609E1,5.892487E1,1.3401674E2,4.709315E0,1.2357965E0,5.206023E0,1.3686E0,2.9085142E1,1.0092387E2,5.263431E2,6.9538376E1,8.102449E0,2.223975E0,5.0802445E0,1.11612946E2,5.5226036E1,8.713675E0,1.7033343E0,2.5946603E0],"tree_param":{"num_deleted":"0","num_feature":"11","num_nodes":"125","size_leaf_vector":"0"}},{"base_weights":[-5.680462E-3,-1.0624994E-1,3.5929716E-1,-3.5663134E-1,-6.345663E-2,3.1824195E-1,4.215723E-1,-4.0241146E-1,1.3202989E-1,-9.171075E-2,2.1029676E-1,2.937882E-1,4.283464E-1,3.4901628E-1,4.565666E-1,-5.9521663E-1,-3.2881987E-1,6.673995E-2,7.2308487E-1,-2.568961E-1,-5.1591717E-2,3.494638E-1,7.487838E-2,3.7424186E-1,2.556454E-1,3.7607688E-1,5.2769834E-1,1.9153418E-1,4.5976043E-1,6.1270416E-1,4.2237467E-1,-6.2588394E-1,-3.27483E-1,-3.832259E-1,-3.64802E-2,-1.2892292E-1,3.2084036E-1,1.0472382E0,-1.5383981E-1,-4.4263044E-1,-2.0466612E-1,1.02159075E-1,-9.156844E-2,3.5987097E-1,-4.068872E-1,-2.5899418E-2,2.5833896E-1,-6.3468665E-1,3.8071218E-1,-2.6370588E-1,2.7276838E-1,4.3946263E-1,1.2614475E-1,7.4542683E-1,2.9736894E-1,-1.909892E-1,2.5363535E-1,6.831612E-1,3.199131E-1,3.6388817E-1,7.046535E-1,-1.397004E-1,4.3475685E-1,-6.5233994E-1,-3.5265374E-1,1.2526643E0,-4.4416058E-1,-5.4622674E-1,-3.026375E-1,-1.1056771E-1,4.3019196E-1,-2.1651773E-1,1.2880899E0,-1.087279E0,3.9150178E-1,3.9856595E-1,-7.5885046E-1,-4.1365224E-1,-1.0177051E0,-2.5343868E-1,-3.792534E-2,3.8611516E-2,2.901874E-1,-1.767708E-1,-1.9718796E-2,5.9694976E-1,3.137312E-1,1.8944295E-1,-7.2102517E-1,3.9382678E-1,-1.2467278E-1,-7.7984464E-1,2.843473E-1,2.9513714E-1,4.515817E-1,-1.0458933E-1,-1.0513644E0,-1.24342754E-1,2.859158E-1,9.818496E-4,4.8609692E-1,-6.720809E-2,4.3051022E-1,8.4565175E-1,4.2236075E-1,-5.2588858E-2,4.739022E-1,3.3267212E-1,-5.4641235E-1,3.146827E-1,-3.2472187E-1,5.252067E-1,8.0632645E-1,2.4316107E-1,9.5037E-1,-4.6369544E-1,5.2748513E-1,7.810658E-1,3.2229665E-1,-1.6515424E0,2.723119E-1,4.9555567E-1,3.2309142E-1],"categories":[],"categories_nodes":[],"categories_segments":[],"categories_sizes":[],"default_left":[true,true,true,true,true,true,true,true,true,true,true,true,true,true,true,true,true,true,true,true,true,true,true,true,true,true,true,true,true,true,true,true,true,true,true,true,true,false,true,true,true,true,true,true,true,true,true,false,true,true,true,true,true,true,true,true,true,true,true,true,true,true,true,false,false,false,false,false,false,false,false,false,false,false,false,false,false,false,false,false,false,false,false,false,false,false,false,false,false,false,false,false,false,false,false,false,false,false,false,false,false,false,false,false,false,false,false,false,false,false,false,false,false,false,false,false,false,false,false,false,false,false,false],"id":5,"left_children":[1,3,5,7,9,11,13,15,17,19,21,23,25,27,29,31,33,35,37,39,41,43,45,47,49,51,53,55,57,59,61,63,65,67,69,71,73,-1,75,77,79,81,83,85,87,89,91,-1,93,95,97,99,101,103,105,107,109,111,113,115,117,119,121,-1,-1,-1,-1,-1,-1,-1,-1,-1,-1,-1,-1,-1,-1,-1,-1,-1,-1,-1,-1,-1,-1,-1,-1,-1,-1,-1,-1,-1,-1,-1,-1,-1,-1,-1,-1,-1,-1,-1,-1,-1,-1,-1,-1,-1,-1,-1,-1,-1,-1,-1,-1,-1,-1,-1,-1,-1,-1,-1,-1],"loss_changes":[3.6663367E2,8.388047E1,5.3826294E0,2.56185E1,5.175564E1,3.3865356E0,2.0095978E0,1.4633713E1,3.7584171E0,4.017215E1,1.1772779E1,3.1897888E0,1.0213547E0,4.833477E0,2.8005066E0,2.155487E0,1.2052567E1,4.5126677E0,2.9215245E0,1.1402008E1,3.0004814E1,2.57473E0,5.896946E0,2.4754028E0,6.558811E0,2.438057E0,3.7148285E0,2.856905E0,4.935417E0,2.048046E0,3.3549118E0,1.6265564E0,6.390334E0,8.235405E0,4.2014527E0,6.674019E0,4.347036E0,0E0,1.4697719E0,3.8979073E0,7.52528E0,1.2027309E1,2.3709839E1,3.147255E0,1.0088973E0,8.611742E0,3.274177E0,0E0,1.9324799E0,2.871719E0,3.72501E0,2.5586548E0,1.9853799E0,9.278946E-1,2.4842086E0,3.3613095E0,3.7085419E0,7.9496765E-1,4.7693243E0,4.2043543E0,1.865879E0,7.2760878E0,2.9857025E0,0E0,0E0,0E0,0E0,0E0,0E0,0E0,0E0,0E0,0E0,0E0,0E0,0E0,0E0,0E0,0E0,0E0,0E0,0E0,0E0,0E0,0E0,0E0,0E0,0E0,0E0,0E0,0E0,0E0,0E0,0E0,0E0,0E0,0E0,0E0,0E0,0E0,0E0,0E0,0E0,0E0,0E0,0E0,0E0,0E0,0E0,0E0,0E0,0E0,0E0,0E0,0E0,0E0,0E0,0E0,0E0,0E0,0E0,0E0,0E0],"parents":[2147483647,0,0,1,1,2,2,3,3,4,4,5,5,6,6,7,7,8,8,9,9,10,10,11,11,12,12,13,13,14,14,15,15,16,16,17,17,18,18,19,19,20,20,21,21,22,22,23,23,24,24,25,25,26,26,27,27,28,28,29,29,30,30,31,31,32,32,33,33,34,34,35,35,36,36,38,38,39,39,40,40,41,41,42,42,43,43,44,44,45,45,46,46,48,48,49,49,50,50,51,51,52,52,53,53,54,54,55,55,56,56,57,57,58,58,59,59,60,60,61,61,62,62],"right_children":[2,4,6,8,10,12,14,16,18,20,22,24,26,28,30,32,34,36,38,40,42,44,46,48,50,52,54,56,58,60,62,64,66,68,70,72,74,-1,76,78,80,82,84,86,88,90,92,-1,94,96,98,100,102,104,106,108,110,112,114,116,118,120,122,-1,-1,-1,-1,-1,-1,-1,-1,-1,-1,-1,-1,-1,-1,-1,-1,-1,-1,-1,-1,-1,-1,-1,-1,-1,-1,-1,-1,-1,-1,-1,-1,-1,-1,-1,-1,-1,-1,-1,-1,-1,-1,-1,-1,-1,-1,-1,-1,-1,-1,-1,-1,-1,-1,-1,-1,-1,-1,-1,-1],"split_conditions":[1.345E2,4.55E1,1.495E2,8.95E1,2.5E0,6.05E1,7.01E1,4.05E1,2.5E0,1.195E2,2.5E0,5.05E1,1.675E0,5.45E1,4.95E1,1.5E0,1.5E0,1.675E0,8.9E1,6.175E1,5E-1,1.795E0,7.65E1,5.25E1,5.15E1,1.5E0,6.25E1,1.555E0,6.391E1,4.35E1,7.55E1,1.5E0,6.5E1,7.45E1,1.205E2,9.95E1,3.95E1,3.141715E-1,1.675E0,5E-1,5.85E1,5.95E1,5.45E1,5.15E1,7.5E1,1.575E0,4.75E1,-1.9040601E-1,7.45E1,2.5E0,7.95E1,6.15E1,6.35E1,1.5E0,8.75E1,1.525E0,2.5E0,5.95E1,5E-1,8.95E1,1.5E0,7.35E1,9.15E1,-1.9570199E-1,-1.0579613E-1,3.7579933E-1,-1.3324818E-1,-1.6386802E-1,-9.079125E-2,-3.3170316E-2,1.290576E-1,-6.4955324E-2,3.86427E-1,-3.261837E-1,1.1745054E-1,1.19569786E-1,-2.2765514E-1,-1.2409568E-1,-3.0531153E-1,-7.603161E-2,-1.1377603E-2,1.1583455E-2,8.705622E-2,-5.3031243E-2,-5.915639E-3,1.7908493E-1,9.411936E-2,5.6832887E-2,-2.1630757E-1,1.1814804E-1,-3.7401836E-2,-2.339534E-1,8.530419E-2,8.854114E-2,1.3547452E-1,-3.13768E-2,-3.1540933E-1,-3.730283E-2,8.577474E-2,2.945549E-4,1.4582908E-1,-2.0162428E-2,1.2915307E-1,2.5369555E-1,1.2670822E-1,-1.5776658E-2,1.4217067E-1,9.980164E-2,-1.6392371E-1,9.440481E-2,-9.7416565E-2,1.5756202E-1,2.4189794E-1,7.294832E-2,2.85111E-1,-1.3910864E-1,1.5824555E-1,2.3431976E-1,9.6689E-2,-4.9546275E-1,8.1693575E-2,1.4866671E-1,9.692743E-2],"split_indices":[4,0,4,5,6,0,3,0,6,4,7,0,2,0,0,7,6,2,3,3,10,2,3,3,0,1,0,2,3,0,5,6,5,5,4,3,0,0,2,9,0,0,0,0,5,2,0,0,3,6,5,0,0,7,5,2,6,3,8,5,7,3,5,0,0,0,0,0,0,0,0,0,0,0,0,0,0,0,0,0,0,0,0,0,0,0,0,0,0,0,0,0,0,0,0,0,0,0,0,0,0,0,0,0,0,0,0,0,0,0,0,0,0,0,0,0,0,0,0,0,0,0,0],"split_type":[0,0,0,0,0,0,0,0,0,0,0,0,0,0,0,0,0,0,0,0,0,0,0,0,0,0,0,0,0,0,0,0,0,0,0,0,0,0,0,0,0,0,0,0,0,0,0,0,0,0,0,0,0,0,0,0,0,0,0,0,0,0,0,0,0,0,0,0,0,0,0,0,0,0,0,0,0,0,0,0,0,0,0,0,0,0,0,0,0,0,0,0,0,0,0,0,0,0,0,0,0,0,0,0,0,0,0,0,0,0,0,0,0,0,0,0,0,0,0,0,0,0,0],"sum_hessian":[9.986451E3,7.829691E3,2.1567605E3,1.1417921E3,6.687899E3,1.3035194E3,8.5324097E2,1.0441478E3,9.764424E1,6.06282E3,6.250791E2,1.0696276E3,2.3389189E2,2.811947E2,5.7204626E2,2.8648572E2,7.576621E2,8.893328E1,8.710956E0,1.1836945E3,4.8791255E3,3.0749326E2,3.1758585E2,3.4117783E2,7.284497E2,1.5639633E2,7.749556E1,1.17225464E2,1.6396924E2,9.972633E1,4.7231992E2,2.5584271E2,3.0643011E1,6.385193E2,1.1914282E2,5.0522488E1,3.8410793E1,6.218196E0,2.4927597E0,2.5816452E2,9.2552997E2,1.00651306E3,3.8726123E3,3.0383676E2,3.6565123E0,2.0553891E2,1.1204694E2,1.5553663E0,3.3962247E2,2.279073E1,7.05659E2,1.2415166E2,3.2244667E1,3.868787E1,3.880769E1,1.6083122E1,1.0114234E2,6.163102E1,1.0233822E2,2.824704E1,7.1479294E1,9.959031E0,4.6236087E2,2.3199219E2,2.3850529E1,1.4376055E0,2.9205404E1,2.0933438E2,4.291849E2,1.0347802E2,1.5664798E1,4.8379063E1,2.1434243E0,1.1479355E0,3.726286E1,1.481395E0,1.0113647E0,2.4741641E2,1.0748101E1,7.156721E2,2.0985786E2,7.531708E2,2.533423E2,1.7710115E3,2.1016008E3,4.7553925E1,2.5628284E2,1.39856E0,2.2579522E0,3.858579E1,1.6695312E2,2.0300093E0,1.1001694E2,1.5618877E2,1.8343369E2,1.9902891E1,2.8878396E0,2.2342995E1,6.83316E2,1.2032894E1,1.1211877E2,2.0194796E1,1.204987E1,2.8292957E1,1.0394912E1,1.3247693E1,2.5559996E1,6.5284567E0,9.554666E0,9.1898125E1,9.244223E0,2.9308407E1,3.2322613E1,9.246696E1,9.871264E0,4.3594804E0,2.388756E1,5.8704666E1,1.2774631E1,1.4885292E0,8.470502E0,2.9713892E2,1.6522195E2],"tree_param":{"num_deleted":"0","num_feature":"11","num_nodes":"123","size_leaf_vector":"0"}},{"base_weights":[-3.7055092E-3,-1.16434604E-1,1.925669E-1,-2.9159963E-1,-7.436934E-2,8.536475E-2,2.7594373E-1,-5.460379E-1,-2.5537276E-1,-1.0828044E-1,1.0326301E-1,-4.0761548E-1,9.664312E-2,2.9163256E-1,1.4062215E-1,-5.015482E-1,-9.889413E-1,-3.8533023E-1,-1.9289996E-1,-1.4895064E-1,9.455583E-3,6.772801E-2,4.3391714E-1,-5.82555E-1,8.6356334E-2,1.2283878E-1,-1.4111498E-1,2.5981674E-1,3.5588962E-1,1.8154053E-1,-1.4170766E-1,-5.47759E-1,-1.8627448E-1,-1.0527269E0,-3.023222E-1,-4.410491E-1,-1.3000342E-1,-2.1118794E-1,2.6479626E-1,-3.1897235E-1,-1.2562774E-1,6.994255E-2,-1.0694004E-1,7.3725805E-2,-1.254261E0,5.896675E-1,-7.4494135E-1,-1.7056121E-1,-7.338015E-1,4.3111625E-1,-4.9021307E-1,9.7245544E-2,2.6802105E-1,-6.979415E-1,-5.802852E-2,2.2191207E-1,3.1653243E-1,2.0437182E-1,3.90954E-1,2.011128E-1,-5.7138145E-1,-3.8136777E-1,1.9515944E-1,-6.522984E-1,-3.4980983E-1,-7.9437566E-1,9.5658325E-2,-1.6886443E-1,-4.938516E-1,-2.8373218E-1,2.6670936E-1,-1.8851013E-1,-5.503151E-1,5.639707E-1,-2.5796124E-1,-4.0861573E-2,-3.8886824E-1,-4.1431603E-1,-1.1237969E-1,5.456669E-2,6.2305635E-1,-6.3266724E-1,-5.992047E-2,9.013072E-2,-3.1010213E-1,6.6528815E-1,-1.01579376E-1,-6.880686E-2,-1.4299158E0,-1.0048914E0,1.5457322E-1,-1.1173341E0,-4.0826282E-1,-1.3386479E-1,7.076431E-1,-7.782098E-1,1.1338438E-1,1.06996566E-1,-2.8163612E-1,7.0762205E-1,2.4403492E-1,9.408378E-4,-8.970544E-1,-3.0762765E-1,1.4128458E-1,2.3566224E-1,-2.4102645E-1,1.6015336E-1,3.6824748E-1,1.4173119E-1,8.960875E-1,4.3148696E-1,2.3690282E-1,1.7402731E-1,7.1244967E-1,-1.5607276E0,1.5986235E-1,-6.293674E-1,6.721267E-1,-4.8377523E-1,4.8514706E-1],"categories":[],"categories_nodes":[],"categories_segments":[],"categories_sizes":[],"default_left":[true,true,true,true,true,true,true,true,true,true,true,true,true,true,true,true,true,true,true,true,true,true,true,true,true,true,true,true,true,true,true,true,true,false,false,true,true,true,true,true,true,true,true,true,false,true,true,true,true,true,true,true,true,true,true,true,true,true,true,true,true,true,true,false,false,false,false,false,false,false,false,false,false,false,false,false,false,false,false,false,false,false,false,false,false,false,false,false,false,false,false,false,false,false,false,false,false,false,false,false,false,false,false,false,false,false,false,false,false,false,false,false,false,false,false,false,false,false,false,false,false],"id":6,"left_children":[1,3,5,7,9,11,13,15,17,19,21,23,25,27,29,31,33,35,37,39,41,43,45,47,49,51,53,55,57,59,61,63,65,-1,-1,67,69,71,73,75,77,79,81,83,-1,85,87,89,91,93,95,97,99,101,103,105,107,109,111,113,115,117,119,-1,-1,-1,-1,-1,-1,-1,-1,-1,-1,-1,-1,-1,-1,-1,-1,-1,-1,-1,-1,-1,-1,-1,-1,-1,-1,-1,-1,-1,-1,-1,-1,-1,-1,-1,-1,-1,-1,-1,-1,-1,-1,-1,-1,-1,-1,-1,-1,-1,-1,-1,-1,-1,-1,-1,-1,-1,-1],"loss_changes":[2.1472882E2,4.54E1,3.1622543E1,1.0860336E1,2.9961437E1,8.659712E0,4.186264E0,2.4174309E0,8.422035E0,1.9995213E1,9.341653E0,3.0634818E0,9.462727E0,3.5533905E0,2.4378333E0,1.885006E0,2.2776127E-1,4.7618484E0,5.9884586E0,1.2266632E1,7.561758E0,5.811988E0,1.4615481E1,1.487401E0,2.1971376E0,5.051689E0,6.9442005E0,2.5019226E0,3.0434036E0,2.8087797E0,2.253591E0,2.2226944E0,3.3249476E0,0E0,0E0,3.906971E0,3.8628547E0,5.141922E0,4.4737535E0,7.2488594E0,1.03975525E1,5.9759636E0,9.041929E0,4.5554204E0,0E0,3.6616821E0,4.279272E0,2.393836E0,1.8694496E0,1.1545856E0,8.194146E-1,4.328079E0,1.9808016E0,2.716012E0,6.6331735E0,4.643219E0,3.7982483E0,4.750799E0,2.871872E0,2.3539085E0,3.7885928E0,4.6320276E0,2.574056E0,0E0,0E0,0E0,0E0,0E0,0E0,0E0,0E0,0E0,0E0,0E0,0E0,0E0,0E0,0E0,0E0,0E0,0E0,0E0,0E0,0E0,0E0,0E0,0E0,0E0,0E0,0E0,0E0,0E0,0E0,0E0,0E0,0E0,0E0,0E0,0E0,0E0,0E0,0E0,0E0,0E0,0E0,0E0,0E0,0E0,0E0,0E0,0E0,0E0,0E0,0E0,0E0,0E0,0E0,0E0,0E0,0E0,0E0],"parents":[2147483647,0,0,1,1,2,2,3,3,4,4,5,5,6,6,7,7,8,8,9,9,10,10,11,11,12,12,13,13,14,14,15,15,16,16,17,17,18,18,19,19,20,20,21,21,22,22,23,23,24,24,25,25,26,26,27,27,28,28,29,29,30,30,31,31,32,32,35,35,36,36,37,37,38,38,39,39,40,40,41,41,42,42,43,43,45,45,46,46,47,47,48,48,49,49,50,50,51,51,52,52,53,53,54,54,55,55,56,56,57,57,58,58,59,59,60,60,61,61,62,62],"right_children":[2,4,6,8,10,12,14,16,18,20,22,24,26,28,30,32,34,36,38,40,42,44,46,48,50,52,54,56,58,60,62,64,66,-1,-1,68,70,72,74,76,78,80,82,84,-1,86,88,90,92,94,96,98,100,102,104,106,108,110,112,114,116,118,120,-1,-1,-1,-1,-1,-1,-1,-1,-1,-1,-1,-1,-1,-1,-1,-1,-1,-1,-1,-1,-1,-1,-1,-1,-1,-1,-1,-1,-1,-1,-1,-1,-1,-1,-1,-1,-1,-1,-1,-1,-1,-1,-1,-1,-1,-1,-1,-1,-1,-1,-1,-1,-1,-1,-1,-1,-1,-1],"split_conditions":[1.295E2,4.65E1,1.385E2,5.95E1,8.22E1,5.55E1,2.5E0,1.695E0,1.195E2,5.95E1,9.995E1,8.7E1,5E-1,1.5E0,9.45E1,1.5E0,1.755E0,1.5E0,2.5E0,5.99E1,1.5E0,1.265E2,5E-1,5.15E1,1.605E0,2.5E0,4.45E1,1.495E2,5E-1,1.775E0,5.85E1,1.615E0,5E-1,-3.1581807E-1,-9.069666E-2,5E-1,1.685E0,5E-1,1.5E0,5E-1,1.025E2,1.745E0,1.595E0,1.785E0,-3.762783E-1,1.765E0,1.735E0,4.25E1,5.35E1,5.15E1,5.45E1,1.015E2,4.45E1,5E-1,7.45E1,1.435E2,1.585E0,1.755E0,9.55E1,5E-1,8.5E1,1.035E2,2.5E0,-1.9568953E-1,-1.04942955E-1,-2.383127E-1,2.8697498E-2,-5.0659332E-2,-1.4815548E-1,-8.511966E-2,8.001281E-2,-5.6553043E-2,-1.6509452E-1,1.6919121E-1,-7.7388376E-2,-1.2258473E-2,-1.16660476E-1,-1.2429481E-1,-3.371391E-2,1.6370008E-2,1.8691692E-1,-1.8980019E-1,-1.7976142E-2,2.7039217E-2,-9.303065E-2,1.9958645E-1,-3.0473813E-2,-2.0642057E-2,-4.2897475E-1,-3.0146742E-1,4.6371967E-2,-3.3520025E-1,-1.2247885E-1,-4.0159438E-2,2.1229294E-1,-2.3346294E-1,3.4015317E-2,3.209897E-2,-8.4490836E-2,2.1228662E-1,7.321048E-2,2.8225133E-4,-2.691163E-1,-9.22883E-2,4.2385377E-2,7.069867E-2,-7.230794E-2,4.804601E-2,1.1047425E-1,4.2519357E-2,2.6882628E-1,1.2944609E-1,7.107085E-2,5.2208196E-2,2.1373491E-1,-4.682183E-1,4.795871E-2,-1.8881023E-1,2.0163803E-1,-1.4513257E-1,1.4554413E-1],"split_indices":[4,0,4,3,3,3,7,2,4,0,3,5,8,6,3,6,2,6,6,3,1,4,8,0,2,6,0,4,10,2,0,2,10,0,0,10,2,9,1,10,4,2,2,2,0,2,2,0,3,0,3,3,0,10,3,4,2,2,5,9,5,3,6,0,0,0,0,0,0,0,0,0,0,0,0,0,0,0,0,0,0,0,0,0,0,0,0,0,0,0,0,0,0,0,0,0,0,0,0,0,0,0,0,0,0,0,0,0,0,0,0,0,0,0,0,0,0,0,0,0,0],"split_type":[0,0,0,0,0,0,0,0,0,0,0,0,0,0,0,0,0,0,0,0,0,0,0,0,0,0,0,0,0,0,0,0,0,0,0,0,0,0,0,0,0,0,0,0,0,0,0,0,0,0,0,0,0,0,0,0,0,0,0,0,0,0,0,0,0,0,0,0,0,0,0,0,0,0,0,0,0,0,0,0,0,0,0,0,0,0,0,0,0,0,0,0,0,0,0,0,0,0,0,0,0,0,0,0,0,0,0,0,0,0,0,0,0,0,0,0,0,0,0,0,0],"sum_hessian":[9.702977E3,6.1634214E3,3.5395552E3,1.1923584E3,4.9710625E3,1.5494136E3,1.9901416E3,1.4685486E2,1.0455035E3,4.174513E3,7.9654956E2,3.3868572E1,1.515545E3,1.782346E3,2.077957E2,1.3538756E2,1.1467304E1,3.377467E2,7.0775684E2,3.102526E3,1.0719873E3,7.2034033E2,7.620926E1,2.487854E1,8.990032E0,1.3655726E3,1.4997243E2,1.195471E3,5.8687494E2,1.8180368E2,2.5992025E1,1.17436966E2,1.7950592E1,1.0004684E1,1.4626198E0,2.7664767E2,6.1099026E1,6.810817E2,2.667513E1,3.7272412E2,2.7298018E3,7.05672E2,3.6631534E2,7.180269E2,2.313416E0,6.775702E1,8.452237E0,7.2519665E0,1.7626574E1,5.7838497E0,3.206182E0,1.162341E3,2.0323169E2,1.8511618E1,1.3146082E2,7.195133E2,4.7595764E2,1.11574615E2,4.7530032E2,1.7791174E2,3.8919423E0,1.5110053E1,1.0881971E1,7.5348976E1,4.2087986E1,5.110387E0,1.2840204E1,4.5630592E1,2.3101709E2,4.4240387E1,1.685864E1,6.398501E2,4.1231617E1,1.6915525E1,9.759604E0,7.517857E1,2.9754553E2,1.1844716E2,2.6113545E3,6.876547E2,1.8017273E1,2.9050083E1,3.3726526E2,6.893299E2,2.869697E1,6.1109367E1,6.6476545E0,4.807365E0,3.6448722E0,1.4473119E0,5.8046546E0,6.975795E0,1.0650779E1,2.070155E0,3.713695E0,1.9746999E0,1.2314821E0,1.1338767E3,2.8464233E1,9.0406065E0,1.9419109E2,4.325272E0,1.4186345E1,5.8126167E1,7.333464E1,6.992356E2,2.027772E1,1.19301956E2,3.5665567E2,1.0341447E2,8.160146E0,3.7486682E2,1.0043352E2,1.7023476E2,7.676991E0,1.1719671E0,2.7199752E0,1.2556711E1,2.5533426E0,3.0568492E0,7.825122E0],"tree_param":{"num_deleted":"0","num_feature":"11","num_nodes":"121","size_leaf_vector":"0"}},{"base_weights":[-2.940185E-3,-8.425652E-2,1.4064649E-1,-3.1243974E-1,-6.341722E-2,5.993877E-2,2.0612407E-1,-3.829491E-1,-1.0735913E-1,-9.363321E-2,7.351496E-2,3.2488294E-2,1.963729E-1,2.269806E-1,1.2754728E-1,-7.7205354E-1,-3.587518E-1,-2.8544001E-2,-6.274044E-1,-7.4773E-2,-3.351761E-1,9.559652E-2,-2.7580175E-1,-1.0246121E-1,6.021227E-2,2.4548781E-1,-8.9221E-2,1.9792186E-1,2.987317E-1,1.15720674E-1,7.852513E-1,-3.6792064E-1,5.0303596E-1,-2.3337851E-1,1.3044268E-1,-1.0050342E0,-2.7689493E-1,-1.1684453E-1,6.4224205E-3,-6.15889E-1,-1.9911793E-1,7.971794E-2,4.8390332E-1,-3.472577E-1,6.1651903E-1,-5.6586782E-3,-2.6558545E-1,8.219676E-2,-1.1456691E-1,1.4867786E-1,4.3605477E-1,-2.95114E-1,5.0732625E-1,1.7303655E-1,3.1456226E-1,5.305894E-1,2.6524207E-1,9.768084E-2,3.855356E-1,9.6452886E-1,3.5087872E-1,-3.2433718E-1,-5.87091E-1,-1.0024874E-1,1.0688878E0,-6.8163973E-1,-6.064636E-3,-1.1191541E-1,2.3929897E-1,1.21834606E-1,-5.4858184E-1,-1.342856E-1,1.6763309E-1,1.5283154E-1,-3.1092785E-2,-5.0378996E-1,-8.383329E-1,-2.4789976E-1,6.73483E-1,-3.820235E-2,1.2975724E-1,5.752475E-1,-4.364214E-1,-4.9387982E-1,3.597024E-2,1.0006883E0,1.06539115E-1,2.2406118E-1,-1.1438473E-1,-2.1099134E-1,-5.673232E-1,2.5175747E-1,5.4335278E-2,-1.713456E-1,2.9818022E-1,4.6438396E-1,6.1163045E-2,4.684516E-1,-6.857921E-1,-1.738059E-1,-1.4288006E0,-3.5603562E-1,7.163052E-1,4.6602666E-2,2.1538462E-1,3.30214E-1,-2.4500239E-1,2.790492E-2,6.208344E-1,4.962064E-2,3.152031E-1,3.459064E-1,8.013864E-2,5.098087E-1,-1.2336781E0,7.255883E-1,-2.2281551E-1],"categories":[],"categories_nodes":[],"categories_segments":[],"categories_sizes":[],"default_left":[true,true,true,true,true,true,true,true,true,true,true,true,true,true,true,false,true,true,true,true,true,true,true,true,true,true,true,true,true,true,true,true,true,true,true,false,true,true,true,true,true,true,true,true,true,true,true,true,true,true,true,true,true,true,true,true,true,true,true,false,true,false,false,false,false,false,false,false,false,false,false,false,false,false,false,false,false,false,false,false,false,false,false,false,false,false,false,false,false,false,false,false,false,false,false,false,false,false,false,false,false,false,false,false,false,false,false,false,false,false,false,false,false,false,false,false,false],"id":7,"left_children":[1,3,5,7,9,11,13,15,17,19,21,23,25,27,29,-1,31,33,35,37,39,41,43,45,47,49,51,53,55,57,59,61,63,65,67,-1,69,71,73,75,77,79,81,83,85,87,89,91,93,95,97,99,101,103,105,107,109,111,113,-1,115,-1,-1,-1,-1,-1,-1,-1,-1,-1,-1,-1,-1,-1,-1,-1,-1,-1,-1,-1,-1,-1,-1,-1,-1,-1,-1,-1,-1,-1,-1,-1,-1,-1,-1,-1,-1,-1,-1,-1,-1,-1,-1,-1,-1,-1,-1,-1,-1,-1,-1,-1,-1,-1,-1,-1,-1],"loss_changes":[1.1079173E2,2.8787289E1,1.8118011E1,7.2859573E0,2.2979908E1,5.754104E0,3.0745544E0,3.2695618E0,5.3526993E0,2.0698414E1,7.772811E0,4.8013387E0,3.632887E0,3.0584106E0,3.016592E0,0E0,3.0019417E0,3.7701063E0,1.9979649E0,1.4419317E1,1.2450119E1,5.789978E0,4.037676E0,3.4535637E0,4.0972667E0,3.9924917E0,4.8795695E0,3.043213E0,3.1906853E0,1.8782272E0,1.9763994E-1,3.1845512E0,1.5324934E0,5.145666E0,1.7493738E0,0E0,1.1825312E0,1.3817345E1,7.9225616E0,2.2454872E0,9.667904E0,5.3708305E0,3.35643E0,3.1734076E0,8.3504057E-1,3.4808075E0,1.2222805E0,4.453471E0,2.8465521E0,4.042844E0,2.9950857E0,3.7757092E0,2.1041138E0,4.7110977E0,1.7136574E0,2.3937998E0,4.044468E0,1.584661E0,5.5244274E0,0E0,9.3188834E-1,0E0,0E0,0E0,0E0,0E0,0E0,0E0,0E0,0E0,0E0,0E0,0E0,0E0,0E0,0E0,0E0,0E0,0E0,0E0,0E0,0E0,0E0,0E0,0E0,0E0,0E0,0E0,0E0,0E0,0E0,0E0,0E0,0E0,0E0,0E0,0E0,0E0,0E0,0E0,0E0,0E0,0E0,0E0,0E0,0E0,0E0,0E0,0E0,0E0,0E0,0E0,0E0,0E0,0E0,0E0,0E0],"parents":[2147483647,0,0,1,1,2,2,3,3,4,4,5,5,6,6,7,7,8,8,9,9,10,10,11,11,12,12,13,13,14,14,16,16,17,17,18,18,19,19,20,20,21,21,22,22,23,23,24,24,25,25,26,26,27,27,28,28,29,29,30,30,31,31,32,32,33,33,34,34,36,36,37,37,38,38,39,39,40,40,41,41,42,42,43,43,44,44,45,45,46,46,47,47,48,48,49,49,50,50,51,51,52,52,53,53,54,54,55,55,56,56,57,57,58,58,60,60],"right_children":[2,4,6,8,10,12,14,16,18,20,22,24,26,28,30,-1,32,34,36,38,40,42,44,46,48,50,52,54,56,58,60,62,64,66,68,-1,70,72,74,76,78,80,82,84,86,88,90,92,94,96,98,100,102,104,106,108,110,112,114,-1,116,-1,-1,-1,-1,-1,-1,-1,-1,-1,-1,-1,-1,-1,-1,-1,-1,-1,-1,-1,-1,-1,-1,-1,-1,-1,-1,-1,-1,-1,-1,-1,-1,-1,-1,-1,-1,-1,-1,-1,-1,-1,-1,-1,-1,-1,-1,-1,-1,-1,-1,-1,-1,-1,-1,-1,-1],"split_conditions":[1.295E2,4.25E1,1.385E2,7.75E1,1.5E0,6.15E1,1.5E0,3.95E1,1.765E0,5E-1,5E-1,6.425E1,1.715E0,1.5E0,1.045E2,-2.3161606E-1,1.205E2,4.05E1,8.35E1,5.75E1,6.85E1,9.65E1,8.25E1,1.625E0,5E-1,1.5E0,1.775E0,6.05E1,6.391E1,5E-1,2.5E0,1.705E0,1.6800001E0,1.175E2,1.635E0,-3.0151027E-1,8.75E1,1.5E0,5E-1,5E-1,6.25E1,1.195E2,5E-1,2.5E0,1.645E0,5.15E1,1.705E0,6.845E1,9.35E1,1.575E0,1.705E0,5E-1,7.45E1,8.95E1,1.785E0,5.55E1,6.94E1,4.55E1,1.795E0,2.8935868E-1,5.65E1,-9.730116E-2,-1.7612731E-1,-3.0074622E-2,3.2066637E-1,-2.0449193E-1,-1.8193909E-3,-3.3574626E-2,7.17897E-2,3.6550384E-2,-1.6457456E-1,-4.028568E-2,5.028993E-2,4.5849465E-2,-9.327836E-3,-1.51137E-1,-2.514999E-1,-7.436993E-2,2.0204492E-1,-1.1460705E-2,3.8927175E-2,1.7257427E-1,-1.3092643E-1,-1.4816396E-1,1.0791073E-2,3.002065E-1,3.1961735E-2,6.7218356E-2,-3.4315422E-2,-6.3297406E-2,-1.7019697E-1,7.552724E-2,1.6300583E-2,-5.1403683E-2,8.945407E-2,1.3931519E-1,1.8348914E-2,1.4053549E-1,-2.0573764E-1,-5.2141774E-2,-4.286402E-1,-1.0681069E-1,2.1489157E-1,1.39808E-2,6.461539E-2,9.90642E-2,-7.350072E-2,8.371476E-3,1.8625033E-1,1.4886192E-2,9.4560936E-2,1.03771925E-1,2.4041593E-2,1.5294263E-1,-3.7010345E-1,2.176765E-1,-6.684466E-2],"split_indices":[4,0,4,3,6,0,7,0,2,8,9,3,2,6,3,0,4,0,3,0,3,3,5,2,8,6,2,0,3,9,6,2,2,4,2,0,3,7,10,9,0,4,8,6,2,0,2,3,3,2,2,9,3,5,2,3,3,0,2,0,0,0,0,0,0,0,0,0,0,0,0,0,0,0,0,0,0,0,0,0,0,0,0,0,0,0,0,0,0,0,0,0,0,0,0,0,0,0,0,0,0,0,0,0,0,0,0,0,0,0,0,0,0,0,0,0,0],"split_type":[0,0,0,0,0,0,0,0,0,0,0,0,0,0,0,0,0,0,0,0,0,0,0,0,0,0,0,0,0,0,0,0,0,0,0,0,0,0,0,0,0,0,0,0,0,0,0,0,0,0,0,0,0,0,0,0,0,0,0,0,0,0,0,0,0,0,0,0,0,0,0,0,0,0,0,0,0,0,0,0,0,0,0,0,0,0,0,0,0,0,0,0,0,0,0,0,0,0,0,0,0,0,0,0,0,0,0,0,0,0,0,0,0,0,0,0,0],"sum_hessian":[9.486874E3,6.0570464E3,3.4298274E3,5.057095E2,5.551337E3,1.5371052E3,1.8927222E3,3.756789E2,1.300306E2,4.5480605E3,1.0032767E3,1.2806726E3,2.5643256E2,1.4942236E3,3.9849847E2,2.0185156E1,3.5549374E2,1.1383351E2,1.6197079E1,4.219873E3,3.2818756E2,9.443098E2,5.896686E1,2.1780196E2,1.0628707E3,2.1892366E2,3.750889E1,1.0661843E3,4.280394E2,3.9261456E2,5.8839126E0,3.523184E2,3.1753507E0,4.9539776E1,6.429373E1,6.898E0,9.299079E0,2.7793232E3,1.4405496E3,1.0598809E2,2.2219948E2,9.083702E2,3.5939632E1,5.5160515E1,3.806348E0,1.3733699E2,8.0464966E1,9.4458624E2,1.1828447E2,1.4635434E2,7.256931E1,2.8260366E1,9.24852E0,8.8075757E2,1.8542671E2,5.2149708E1,3.7588968E2,3.692861E2,2.3328459E1,3.3009918E0,2.5829206E0,2.9594724E2,5.637115E1,1.9350873E0,1.2402632E0,1.5996376E1,3.35434E1,1.9918655E1,4.4375076E1,3.9919817E0,5.307097E0,2.6192664E3,1.6005693E2,2.932032E2,1.1473464E3,7.264429E1,3.33438E1,2.1111331E2,1.1086158E1,2.7069632E2,6.376738E2,3.3035717E1,2.9039142E0,3.968745E1,1.5473065E1,1.6221596E0,2.1841884E0,4.377885E1,9.3558136E1,6.957573E1,1.0889239E1,1.3217195E2,8.124143E2,1.04494736E2,1.3789734E1,3.0830006E1,1.1552434E2,7.109855E1,1.4707651E0,2.6570543E1,1.6898236E0,1.6652253E0,7.583295E0,2.2151265E2,6.5924493E2,1.8077994E2,4.6467695E0,8.136548E0,4.401316E1,7.108686E1,3.0480283E2,2.3139467E1,3.4614664E2,2.2301956E1,1.0265033E0,1.402264E0,1.1806567E0],"tree_param":{"num_deleted":"0","num_feature":"11","num_nodes":"117","size_leaf_vector":"0"}},{"base_weights":[-2.2017455E-3,-4.5869038E-2,1.4157028E-1,-2.2343564E-1,-2.6682293E-2,2.3983443E-1,1.1950326E-1,-2.0261666E-1,-7.628181E-1,-4.3679744E-2,1.4961149E-1,1.5213124E0,2.2972511E-1,5.8704495E-2,1.544845E-1,-2.9564267E-1,-8.312722E-2,-8.365909E-1,2.2101164E-1,-2.8459245E-1,-3.286207E-2,5.723436E-3,2.7449024E-1,1.3029611E-1,3.483225E-1,2.4880582E-1,1.0489264E-2,1.7828332E-1,7.390771E-2,-3.4749177E-1,-5.4953314E-2,-3.6050084E-1,-3.4652613E-2,-4.1459322E-1,-9.8377544E-1,2.0460092E-1,-3.12783E-1,-2.2025302E-2,-2.583953E-1,9.5745936E-2,-2.3378973E-1,2.950479E-1,-9.507068E-1,1.7722934E-1,-3.253756E-1,-4.6826383E-1,3.6070615E-1,4.095132E-1,1.1791554E-1,-2.899096E-1,4.8388105E-2,1.9285886E-1,7.362813E-2,-1.6152224E-1,1.396667E-1,-3.6643338E-1,1.4550008E-1,-5.169916E-1,1.3927826E-1,-4.7553945E-1,8.24155E-2,-9.299146E-2,2.1357433E-1,-7.060766E-1,3.816508E-1,7.785659E-1,-1.05226696E-1,-3.0173182E-1,-1.0863682E0,-1.1954693E-1,6.248262E-4,-2.9942322E-1,3.3703113E-1,3.184151E-1,1.2758369E-2,-7.879954E-1,-1.3985072E-1,4.2664492E-1,1.7323801E-1,-1.6556386E0,-1.9717601E-1,-8.546384E-2,2.4703716E-1,4.6970975E-1,-4.9447793E-1,4.4614646E-1,2.228258E-1,1.6095676E-2,5.0307393E-1,6.9540567E-3,3.923406E-1,-4.8426706E-1,1.7615478E-1,4.815872E-1,2.7788553E-2,1.6291212E-1,2.62335E-1,1.4298043E-1,-6.3464385E-1,-2.6988402E-1,3.4926185E-1,1.1021809E-1,6.611157E-1],"categories":[],"categories_nodes":[],"categories_segments":[],"categories_sizes":[],"default_left":[true,true,true,true,true,true,true,true,true,true,true,false,true,true,true,true,true,true,false,true,true,true,true,true,true,true,true,true,true,true,true,true,true,true,false,true,true,true,true,true,true,true,true,true,true,false,true,true,true,true,true,true,true,true,true,false,false,false,false,false,false,false,false,false,false,false,false,false,false,false,false,false,false,false,false,false,false,false,false,false,false,false,false,false,false,false,false,false,false,false,false,false,false,false,false,false,false,false,false,false,false,false,false],"id":8,"left_children":[1,3,5,7,9,11,13,15,17,19,21,-1,23,25,27,29,31,33,-1,35,37,39,41,43,45,47,49,51,53,55,57,59,61,63,-1,65,67,69,71,73,75,77,79,81,83,-1,85,87,89,91,93,95,97,99,101,-1,-1,-1,-1,-1,-1,-1,-1,-1,-1,-1,-1,-1,-1,-1,-1,-1,-1,-1,-1,-1,-1,-1,-1,-1,-1,-1,-1,-1,-1,-1,-1,-1,-1,-1,-1,-1,-1,-1,-1,-1,-1,-1,-1,-1,-1,-1,-1],"loss_changes":[5.849254E1,2.4340946E1,4.6779137E0,7.6695023E0,1.9335903E1,4.7942696E0,3.764925E0,7.4475307E0,2.0379934E0,1.5325243E1,1.0195011E1,0E0,4.613899E0,5.9523716E0,2.1456623E0,4.6928062E0,3.9626334E0,1.0803165E0,0E0,3.5492706E0,1.37600765E1,5.729462E0,7.9318886E0,4.6883574E0,1.985012E0,2.7157173E0,5.926106E0,1.3104382E0,4.0230055E0,2.9524345E0,6.1841755E0,2.2747407E0,3.6802976E0,2.1086102E0,0E0,2.6382084E0,1.718441E0,1.1873285E1,6.4068317E0,3.5639963E0,3.6693513E0,4.7275124E0,2.462224E0,3.6328902E0,2.9981778E0,0E0,1.9913521E0,2.1480503E0,2.2452126E0,5.3680115E0,4.109176E0,1.541853E0,5.384651E0,3.2425623E0,3.0370047E0,0E0,0E0,0E0,0E0,0E0,0E0,0E0,0E0,0E0,0E0,0E0,0E0,0E0,0E0,0E0,0E0,0E0,0E0,0E0,0E0,0E0,0E0,0E0,0E0,0E0,0E0,0E0,0E0,0E0,0E0,0E0,0E0,0E0,0E0,0E0,0E0,0E0,0E0,0E0,0E0,0E0,0E0,0E0,0E0,0E0,0E0,0E0,0E0],"parents":[2147483647,0,0,1,1,2,2,3,3,4,4,5,5,6,6,7,7,8,8,9,9,10,10,12,12,13,13,14,14,15,15,16,16,17,17,19,19,20,20,21,21,22,22,23,23,24,24,25,25,26,26,27,27,28,28,29,29,30,30,31,31,32,32,33,33,35,35,36,36,37,37,38,38,39,39,40,40,41,41,42,42,43,43,44,44,46,46,47,47,48,48,49,49,50,50,51,51,52,52,53,53,54,54],"right_children":[2,4,6,8,10,12,14,16,18,20,22,-1,24,26,28,30,32,34,-1,36,38,40,42,44,46,48,50,52,54,56,58,60,62,64,-1,66,68,70,72,74,76,78,80,82,84,-1,86,88,90,92,94,96,98,100,102,-1,-1,-1,-1,-1,-1,-1,-1,-1,-1,-1,-1,-1,-1,-1,-1,-1,-1,-1,-1,-1,-1,-1,-1,-1,-1,-1,-1,-1,-1,-1,-1,-1,-1,-1,-1,-1,-1,-1,-1,-1,-1,-1,-1,-1,-1,-1,-1],"split_conditions":[8.95E1,5.99E1,4.85E1,5E-1,2.5E0,1.05E2,1.385E2,5.55E1,2.5E0,4.15E1,7.25E1,4.5639372E-1,4.55E1,5E-1,1.5E0,1.5E0,5.38E1,5.55E1,6.630349E-2,6.01E1,5E-1,1.5E0,1.795E0,5E-1,5.55E1,1.635E0,5.05E1,1.725E0,5.35E1,1.335E2,4.55E1,1.635E0,1.5E0,1.65E0,-2.9513264E-1,7.75E1,8.15E1,1.185E2,6.25E1,6.35E1,4.75E1,1.5E0,5.35E1,1.585E0,1.25E2,-1.4047916E-1,1.5E0,1.545E0,1.5E0,8.35E1,1.525E0,1.5E0,9.95E1,1.555E2,1.755E0,-1.09930016E-1,4.3650024E-2,-1.5509748E-1,4.178348E-2,-1.4266184E-1,2.4724651E-2,-2.7897438E-2,6.40723E-2,-2.11823E-1,1.1449525E-1,2.3356977E-1,-3.156801E-2,-9.051955E-2,-3.2591048E-1,-3.586408E-2,1.8744786E-4,-8.982697E-2,1.0110934E-1,9.5524535E-2,3.8275106E-3,-2.3639862E-1,-4.1955218E-2,1.2799348E-1,5.1971406E-2,-4.9669158E-1,-5.9152804E-2,-2.5639152E-2,7.411115E-2,1.4091294E-1,-1.4834338E-1,1.3384394E-1,6.684774E-2,4.8287027E-3,1.5092218E-1,2.086217E-3,1.17702186E-1,-1.4528012E-1,5.2846435E-2,1.4447616E-1,8.336566E-3,4.8873637E-2,7.8700505E-2,4.289413E-2,-1.9039316E-1,-8.0965206E-2,1.0477856E-1,3.306543E-2,1.9833472E-1],"split_indices":[5,3,0,9,6,4,4,0,6,0,3,0,0,10,7,1,3,3,0,3,9,1,2,9,3,2,0,2,0,4,0,2,6,2,0,5,5,4,0,3,0,7,0,2,4,0,1,2,6,3,2,6,3,4,2,0,0,0,0,0,0,0,0,0,0,0,0,0,0,0,0,0,0,0,0,0,0,0,0,0,0,0,0,0,0,0,0,0,0,0,0,0,0,0,0,0,0,0,0,0,0,0,0],"split_type":[0,0,0,0,0,0,0,0,0,0,0,0,0,0,0,0,0,0,0,0,0,0,0,0,0,0,0,0,0,0,0,0,0,0,0,0,0,0,0,0,0,0,0,0,0,0,0,0,0,0,0,0,0,0,0,0,0,0,0,0,0,0,0,0,0,0,0,0,0,0,0,0,0,0,0,0,0,0,0,0,0,0,0,0,0,0,0,0,0,0,0,0,0,0,0,0,0,0,0,0,0,0,0],"sum_hessian":[9.314831E3,7.1452993E3,2.1695317E3,6.9574817E2,6.4495513E3,3.960515E2,1.7734801E3,6.712163E2,2.453184E1,5.883083E3,5.664681E2,1.9298817E0,3.941216E2,6.486972E2,1.124783E3,3.7657074E2,2.9464557E2,2.2959848E1,1.5719924E0,2.5172763E2,5.6313555E3,2.636874E2,3.0278067E2,2.1552754E2,1.7859407E2,1.3040007E2,5.182971E2,8.6738354E2,2.573994E2,3.094628E2,6.710792E1,4.2875187E1,2.5177039E2,6.9241667E0,1.603568E1,1.3374849E1,2.3835278E2,5.374224E3,2.5713138E2,1.920896E2,7.159781E1,2.985308E2,4.2498865E0,1.9595558E2,1.9571962E1,2.118003E0,1.7647607E2,5.757755E1,7.282252E1,5.7318893E1,4.6097824E2,7.6060913E2,1.0677439E2,5.5880424E1,2.01519E2,2.9825986E2,1.1202952E1,1.936965E1,4.773827E1,3.3976753E1,8.898433E0,2.0436537E2,4.7405025E1,5.151561E0,1.7726063E0,4.158396E0,9.216454E0,2.3636618E2,1.986605E0,1.0121344E3,4.36209E3,2.4102094E2,1.6110443E1,5.13832E1,1.4070639E2,9.306211E0,6.22916E1,1.422975E2,1.5623329E2,1.5772173E0,2.6726694E0,4.109333E1,1.5486226E2,3.120821E0,1.6451141E1,1.0757767E2,6.889841E1,1.128727E1,4.629028E1,5.2585392E1,2.0237123E1,4.0422787E1,1.6896105E1,1.9909618E1,4.410686E2,5.338466E2,2.267625E2,9.797868E1,8.795711E0,4.6489418E1,9.391007E0,1.9189326E2,9.625725E0],"tree_param":{"num_deleted":"0","num_feature":"11","num_nodes":"103","size_leaf_vector":"0"}},{"base_weights":[-1.560694E-3,-4.6479568E-2,7.899761E-2,-7.241296E-2,4.2474627E-2,5.641656E-2,1.6352797E-1,-1.4682478E-1,-3.2168183E-2,1.177839E-1,-1.7807063E-2,4.02492E-2,1.415306E-1,1.9826075E-1,9.7165324E-2,-2.8791666E-1,-1.2498097E-1,7.537938E-3,-1.2289872E-1,9.236023E-2,6.9128346E-1,-1.18638195E-1,3.5400167E-2,1.24970555E-1,1.7916514E-2,1.7172031E-1,-3.3018623E-2,1.58171E-1,3.4922218E-1,-3.323427E-1,1.8756169E-1,-2.6591697E-1,-7.948585E-1,-2.738513E-2,-1.5747494E-1,-1.0953066E-2,1.8487169E-1,7.288482E-2,-1.6978268E-1,5.3264644E-2,4.0789717E-1,-1.026404E-2,8.5920626E-1,2.3607533E-6,-2.723613E-1,-9.076751E-2,1.15645885E-1,1.4232048E-1,-5.197464E-1,4.56398E-2,-5.6600604E-2,5.410195E-1,1.4241345E-1,-1.9861583E-1,4.3467757E-1,1.9393086E-1,-1.1359644E-1,5.5008304E-1,2.4457647E-1,-1.7847471E0,-2.2582069E-1,3.5765404E-1,1.5092523E-2,-3.1503597E-1,-5.12498E-2,-2.3967698E-1,-8.7128615E-1,-4.216523E-2,6.44381E-1,-1.7052221E-1,2.3541133E-1,-1.2305235E-1,2.4781814E-2,4.504922E-2,3.4782496E-1,1.3108507E-1,-5.5529016E-1,-1.6014901E-1,-7.5010777E-1,1.2408075E-1,-3.935101E-2,4.660511E-1,-5.505171E-1,-4.5442152E-1,3.9468664E-1,9.9460855E-3,1.0989677E0,-2.4639344E-2,7.686325E-1,-2.972369E-1,1.2281227E0,9.973607E-2,-1.8465783E-1,1.6554679E-1,-2.9726765E-1,-5.370178E-1,1.560238E-1,3.005501E-1,-7.760011E-1,-2.620048E-1,6.671731E-2,-3.1568694E-1,7.329203E-2,5.850977E-1,-2.1317309E-1,7.867718E-2,2.4917135E-1,1.8566824E-1,-3.3804923E-1,8.379362E-1,1.2625058E-2,6.1055843E-2,2.617195E-1,7.214512E-1,-1.602409E-1,-2.3313968E-2,7.6987904E-1,3.5745746E-1,-3.8823777E-1,-1.4675825E0,-1.2166102E-1,4.1035286E-1,-5.9119546E-1,-5.109351E-2,6.338127E-1],"categories":[],"categories_nodes":[],"categories_segments":[],"categories_sizes":[],"default_left":[true,true,true,true,true,true,true,true,true,true,true,true,true,true,true,true,true,true,true,true,true,true,true,true,true,true,true,true,true,true,true,true,true,true,true,true,true,true,true,true,true,true,true,true,true,true,true,true,true,true,true,true,true,true,true,true,true,true,true,false,true,true,true,false,false,false,false,false,false,false,false,false,false,false,false,false,false,false,false,false,false,false,false,false,false,false,false,false,false,false,false,false,false,false,false,false,false,false,false,false,false,false,false,false,false,false,false,false,false,false,false,false,false,false,false,false,false,false,false,false,false,false,false,false,false],"id":9,"left_children":[1,3,5,7,9,11,13,15,17,19,21,23,25,27,29,31,33,35,37,39,41,43,45,47,49,51,53,55,57,59,61,63,65,67,69,71,73,75,77,79,81,83,85,87,89,91,93,95,97,99,101,103,105,107,109,111,113,115,117,-1,119,121,123,-1,-1,-1,-1,-1,-1,-1,-1,-1,-1,-1,-1,-1,-1,-1,-1,-1,-1,-1,-1,-1,-1,-1,-1,-1,-1,-1,-1,-1,-1,-1,-1,-1,-1,-1,-1,-1,-1,-1,-1,-1,-1,-1,-1,-1,-1,-1,-1,-1,-1,-1,-1,-1,-1,-1,-1,-1,-1,-1,-1,-1,-1],"loss_changes":[3.3293495E1,1.3629753E1,6.2777557E0,1.3692863E1,6.058149E0,3.5732708E0,1.5800266E0,4.911194E0,1.0699694E1,8.58539E0,3.9838746E0,4.135853E0,2.1913528E0,2.6954346E0,9.393865E0,2.1800938E0,4.4093475E0,6.7788534E0,8.31105E0,6.9997435E0,2.9571247E0,4.6771984E0,4.9343634E0,5.1756306E0,3.5806608E0,3.751851E0,4.8881016E0,3.5299797E0,1.8527145E0,6.118028E0,5.83807E0,2.1666765E0,1.482687E-1,3.4907837E0,5.39135E0,7.5039363E0,4.431995E0,6.4843345E0,3.959446E0,3.3339562E0,3.7454853E0,1.2264532E0,4.1032352E0,2.7793994E0,4.5347185E0,3.4102097E0,6.183384E0,4.225605E0,2.790781E0,8.20668E0,1.5843366E1,9.7753334E-1,2.2198496E0,2.552909E0,2.8019938E0,2.8606024E0,1.7750404E0,3.9984827E0,4.707653E0,0E0,5.0486803E0,5.2550993E0,4.125383E0,0E0,0E0,0E0,0E0,0E0,0E0,0E0,0E0,0E0,0E0,0E0,0E0,0E0,0E0,0E0,0E0,0E0,0E0,0E0,0E0,0E0,0E0,0E0,0E0,0E0,0E0,0E0,0E0,0E0,0E0,0E0,0E0,0E0,0E0,0E0,0E0,0E0,0E0,0E0,0E0,0E0,0E0,0E0,0E0,0E0,0E0,0E0,0E0,0E0,0E0,0E0,0E0,0E0,0E0,0E0,0E0,0E0,0E0,0E0,0E0,0E0,0E0],"parents":[2147483647,0,0,1,1,2,2,3,3,4,4,5,5,6,6,7,7,8,8,9,9,10,10,11,11,12,12,13,13,14,14,15,15,16,16,17,17,18,18,19,19,20,20,21,21,22,22,23,23,24,24,25,25,26,26,27,27,28,28,29,29,30,30,31,31,32,32,33,33,34,34,35,35,36,36,37,37,38,38,39,39,40,40,41,41,42,42,43,43,44,44,45,45,46,46,47,47,48,48,49,49,50,50,51,51,52,52,53,53,54,54,55,55,56,56,57,57,58,58,60,60,61,61,62,62],"right_children":[2,4,6,8,10,12,14,16,18,20,22,24,26,28,30,32,34,36,38,40,42,44,46,48,50,52,54,56,58,60,62,64,66,68,70,72,74,76,78,80,82,84,86,88,90,92,94,96,98,100,102,104,106,108,110,112,114,116,118,-1,120,122,124,-1,-1,-1,-1,-1,-1,-1,-1,-1,-1,-1,-1,-1,-1,-1,-1,-1,-1,-1,-1,-1,-1,-1,-1,-1,-1,-1,-1,-1,-1,-1,-1,-1,-1,-1,-1,-1,-1,-1,-1,-1,-1,-1,-1,-1,-1,-1,-1,-1,-1,-1,-1,-1,-1,-1,-1,-1,-1,-1,-1,-1,-1],"split_conditions":[1.295E2,7.95E1,1.495E2,5.15E1,1.655E0,6.15E1,9.15E1,5.95E1,1.5E0,1.005E2,1.5E0,4.85E1,1.715E0,8.75E1,1.565E0,5E-1,1.605E0,6.25E1,5E-1,1.5E0,1.575E0,8.65E1,8.49E1,1.785E0,1.685E0,7.85E1,1.775E0,8.35E1,5.25E1,9.75E1,1.655E0,1.5E0,4.25E1,7.85E1,8.75E1,7.85E1,1.625E0,2.5E0,1.215E2,1.605E0,8.95E1,1.035E2,1.125E2,5E-1,1.055E2,1.705E0,1.785E0,3.95E1,5E-1,7.95E1,7.45E1,9.65E1,1.5E0,7.35E1,6.25E1,5.35E1,1.525E0,8.95E1,1.745E0,-5.354242E-1,4.35E1,9.95E1,5E-1,-9.451079E-2,-1.537494E-2,-7.1903095E-2,-2.6138586E-1,-1.264957E-2,1.933143E-1,-5.1156666E-2,7.0623405E-2,-3.691571E-2,7.4345446E-3,1.35147665E-2,1.0434749E-1,3.932552E-2,-1.6658705E-1,-4.8044704E-2,-2.2503234E-1,3.7224226E-2,-1.1805303E-2,1.3981533E-1,-1.6515513E-1,-1.3632646E-1,1.18406E-1,2.9838257E-3,3.296903E-1,-7.3918034E-3,2.3058975E-1,-8.917107E-2,3.684368E-1,2.9920822E-2,-5.539735E-2,4.966404E-2,-8.91803E-2,-1.6110535E-1,4.680714E-2,9.0165034E-2,-2.3280033E-1,-7.860144E-2,2.0015195E-2,-9.470609E-2,2.198761E-2,1.755293E-1,-6.395193E-2,2.3603154E-2,7.475141E-2,5.5700477E-2,-1.0141478E-1,2.513809E-1,3.7875175E-3,1.8316753E-2,7.851585E-2,2.1643537E-1,-4.8072275E-2,-6.9941906E-3,2.3096372E-1,1.0723724E-1,-1.16471335E-1,-4.4027475E-1,-3.649831E-2,1.2310586E-1,-1.7735864E-1,-1.5328054E-2,1.9014382E-1],"split_indices":[4,3,4,0,2,0,5,3,1,3,1,0,2,3,2,9,2,0,10,1,2,3,3,2,2,5,2,3,0,5,2,1,0,3,5,5,2,7,4,2,5,3,4,8,3,2,2,0,10,5,3,3,6,3,0,0,2,5,2,0,0,3,9,0,0,0,0,0,0,0,0,0,0,0,0,0,0,0,0,0,0,0,0,0,0,0,0,0,0,0,0,0,0,0,0,0,0,0,0,0,0,0,0,0,0,0,0,0,0,0,0,0,0,0,0,0,0,0,0,0,0,0,0,0,0],"split_type":[0,0,0,0,0,0,0,0,0,0,0,0,0,0,0,0,0,0,0,0,0,0,0,0,0,0,0,0,0,0,0,0,0,0,0,0,0,0,0,0,0,0,0,0,0,0,0,0,0,0,0,0,0,0,0,0,0,0,0,0,0,0,0,0,0,0,0,0,0,0,0,0,0,0,0,0,0,0,0,0,0,0,0,0,0,0,0,0,0,0,0,0,0,0,0,0,0,0,0,0,0,0,0,0,0,0,0,0,0,0,0,0,0,0,0,0,0,0,0,0,0,0,0,0,0],"sum_hessian":[9.198671E3,5.905962E3,3.2927092E3,4.5729624E3,1.3329995E3,2.5998613E3,6.9284784E2,1.6041929E3,2.9687695E3,5.9220734E2,7.407922E2,2.1860881E3,4.1377322E2,4.535053E2,2.3934253E2,2.1343152E2,1.3907614E3,2.0656865E3,9.03083E2,5.6818054E2,2.4026823E1,2.5545631E2,4.853359E2,4.5508395E2,1.7310043E3,3.5277426E2,6.0998947E1,3.5996082E2,9.354448E1,4.1149387E1,1.9819313E2,2.0601564E2,7.415876E0,3.4784616E2,1.0429152E3,1.8714811E3,1.9420547E2,1.7437073E2,7.2871234E2,5.0658282E2,6.1597702E1,4.8216844E0,1.920514E1,1.4474493E2,1.1071138E2,1.8862926E2,2.9670663E2,4.43917E2,1.1166963E1,1.2619113E3,4.6909296E2,2.4653397E1,3.2812088E2,4.547348E1,1.5525465E1,3.18357E2,4.1603836E1,3.0583933E1,6.2960545E1,1.7352269E0,3.941416E1,9.924354E1,9.894959E1,1.6727347E2,3.8742165E1,1.3978306E0,6.0180454E0,3.412747E2,6.571444E0,1.0099422E3,3.297297E1,4.517889E2,1.4196923E3,1.0520797E2,8.899751E1,1.6030942E2,1.4061304E1,7.18068E2,1.0644307E1,2.868845E2,2.1969835E2,5.8558277E1,3.0394263E0,2.2412615E0,2.5804226E0,4.45754E0,1.4747599E1,1.4118654E2,3.5583904E0,1.09694725E2,1.016655E0,6.225385E1,1.2637541E2,2.6525006E2,3.1456583E1,8.02235E0,4.3589465E2,2.6169596E0,8.550003E0,8.018025E1,1.1817311E3,1.5616763E2,3.1292532E2,2.3503935E1,1.1494619E0,2.0654625E2,1.2157463E2,1.2018477E1,3.3455E1,7.435593E0,8.089872E0,1.08190155E2,2.1016684E2,1.4356279E0,4.0168205E1,8.722604E0,2.1861328E1,5.3799038E1,9.161507E0,2.0372238E0,3.7376938E1,9.455927E1,4.684267E0,9.021635E1,8.733246E0],"tree_param":{"num_deleted":"0","num_feature":"11","num_nodes":"125","size_leaf_vector":"0"}},{"base_weights":[-1.0116847E-3,-2.2613654E-2,9.0382874E-2,5.3805385E-2,-4.205242E-2,7.333651E-2,1.5958233E-1,1.2803676E-2,1.6675746E-1,-5.470239E-2,9.334841E-2,9.693427E-2,-8.350624E-2,1.9239214E-1,-2.5000894E-1,2.491611E-2,-3.863016E-1,2.2231412E-1,-1.0445729E-1,-9.1353565E-2,-1.2506003E-2,2.8998193E-1,4.499429E-2,8.928672E-2,4.1249433E-1,-2.4047114E-1,1.3153203E-1,2.9985315E-1,1.0835605E-1,-3.9669722E-1,4.5307025E-1,-2.2893624E-2,1.1088044E-1,-4.9290118E-1,4.4376227E-1,-4.3495438E-1,2.4221966E-1,-1.9858668E-2,-7.556737E-1,-2.3027651E-1,-7.705683E-2,1.8176537E-2,-7.26717E-2,2.0920894E-1,6.2048435E-1,3.65903E-2,7.701289E-1,-4.446986E-1,9.324302E-2,6.269906E-1,-7.729984E-2,-2.5912752E-2,-4.6682733E-1,-7.2776293E-3,3.8388577E-1,7.119076E-1,2.3933391E-1,-1.4063613E-1,2.0410357E-1,-9.481494E-2,-8.92887E-1,8.107807E-1,-4.9924042E-2,1.816748E-2,-1.940751E-1,9.8626256E-2,6.6385025E-1,-9.423061E-1,-3.056118E-1,-4.1025355E-1,9.088348E-1,3.718294E-1,-6.35192E-1,5.546308E-1,1.6024049E-1,-6.990246E-2,8.4543604E-1,-9.783432E-1,2.2315864E-1,-1.8898958E-1,-7.5613374E-1,-1.4480822E-1,-5.693092E-2,1.2939031E-2,4.8688442E-1,-8.3189204E-2,3.7879613E-1,3.1729668E-1,-2.7115303E-1,6.885659E-1,-1.7399518E-1,3.3756945E-1,1.788776E-2,-1.0530981E0,-5.7564527E-2,9.758496E-2,-2.7345645E-1,-1.6875933E-1,8.0847543E-1,-1.4688598E0,6.1171705E-1,-2.702929E-1,2.6186E-1,-5.621348E-1,2.8613394E-1,-8.615741E-2,4.1395652E-1,6.841245E-1,1.3264042E-1,8.049698E-1,-3.608412E-1,-7.516941E-1,2.5889075E-1,-8.0285233E-1,-1.4928416E-2,4.771913E-1,1.4039929E-1,-3.7049156E-1,4.415316E-1,3.9096397E-1,-1.260128E0],"categories":[],"categories_nodes":[],"categories_segments":[],"categories_sizes":[],"default_left":[true,true,true,true,true,true,true,true,true,true,true,true,true,true,true,true,true,true,true,true,true,true,true,true,true,true,true,true,true,true,true,true,true,true,true,true,true,true,true,true,true,true,true,true,true,true,false,true,true,true,true,true,true,true,true,true,true,true,true,true,true,false,false,false,false,false,false,false,false,false,false,false,false,false,false,false,false,false,false,false,false,false,false,false,false,false,false,false,false,false,false,false,false,false,false,false,false,false,false,false,false,false,false,false,false,false,false,false,false,false,false,false,false,false,false,false,false,false,false,false,false],"id":10,"left_children":[1,3,5,7,9,11,13,15,17,19,21,23,25,27,29,31,33,35,37,39,41,43,45,47,49,51,53,55,57,59,61,63,65,67,69,71,73,75,77,79,81,83,85,87,89,91,-1,93,95,97,99,101,103,105,107,109,111,113,115,117,119,-1,-1,-1,-1,-1,-1,-1,-1,-1,-1,-1,-1,-1,-1,-1,-1,-1,-1,-1,-1,-1,-1,-1,-1,-1,-1,-1,-1,-1,-1,-1,-1,-1,-1,-1,-1,-1,-1,-1,-1,-1,-1,-1,-1,-1,-1,-1,-1,-1,-1,-1,-1,-1,-1,-1,-1,-1,-1,-1,-1],"loss_changes":[1.7975687E1,1.0941702E1,2.0415134E0,6.9160123E0,1.0061707E1,5.1838694E0,4.659936E0,5.312916E0,6.016492E0,8.304346E0,4.7603755E0,2.8977098E0,6.2227473E0,2.841878E0,2.8494458E0,4.3823943E0,3.0833488E0,4.428705E0,3.7480645E0,5.6901474E0,4.6117716E0,2.5105515E0,2.4346273E0,2.5523167E0,3.0422468E0,5.1544886E0,2.7364783E0,3.2986994E0,4.324251E0,3.2033548E0,9.2847085E-1,4.822829E0,2.5164933E0,2.1666827E0,2.0452442E0,1.8631744E0,8.141989E0,2.7212987E0,1.9241028E0,5.6681185E0,3.5468302E0,4.0560026E0,4.037599E0,4.2911305E0,1.1429677E0,2.2487123E0,0E0,2.0389695E0,1.9064178E0,3.0142593E0,1.0073308E1,3.9860163E0,3.8716078E0,1.7411346E0,1.9996934E0,2.0184383E0,2.5747147E0,4.203146E0,2.2040682E0,2.3469067E0,4.35145E0,0E0,0E0,0E0,0E0,0E0,0E0,0E0,0E0,0E0,0E0,0E0,0E0,0E0,0E0,0E0,0E0,0E0,0E0,0E0,0E0,0E0,0E0,0E0,0E0,0E0,0E0,0E0,0E0,0E0,0E0,0E0,0E0,0E0,0E0,0E0,0E0,0E0,0E0,0E0,0E0,0E0,0E0,0E0,0E0,0E0,0E0,0E0,0E0,0E0,0E0,0E0,0E0,0E0,0E0,0E0,0E0,0E0,0E0,0E0,0E0],"parents":[2147483647,0,0,1,1,2,2,3,3,4,4,5,5,6,6,7,7,8,8,9,9,10,10,11,11,12,12,13,13,14,14,15,15,16,16,17,17,18,18,19,19,20,20,21,21,22,22,23,23,24,24,25,25,26,26,27,27,28,28,29,29,30,30,31,31,32,32,33,33,34,34,35,35,36,36,37,37,38,38,39,39,40,40,41,41,42,42,43,43,44,44,45,45,47,47,48,48,49,49,50,50,51,51,52,52,53,53,54,54,55,55,56,56,57,57,58,58,59,59,60,60],"right_children":[2,4,6,8,10,12,14,16,18,20,22,24,26,28,30,32,34,36,38,40,42,44,46,48,50,52,54,56,58,60,62,64,66,68,70,72,74,76,78,80,82,84,86,88,90,92,-1,94,96,98,100,102,104,106,108,110,112,114,116,118,120,-1,-1,-1,-1,-1,-1,-1,-1,-1,-1,-1,-1,-1,-1,-1,-1,-1,-1,-1,-1,-1,-1,-1,-1,-1,-1,-1,-1,-1,-1,-1,-1,-1,-1,-1,-1,-1,-1,-1,-1,-1,-1,-1,-1,-1,-1,-1,-1,-1,-1,-1,-1,-1,-1,-1,-1,-1,-1,-1,-1],"split_conditions":[1.385E2,5E-1,8.85E1,7.95E1,2.5E0,8.375E1,5E-1,5E-1,1.745E0,5.45E1,5.05E1,1.695E2,1.475E2,9.35E1,1.765E0,5.65E1,1.5E0,4.05E1,9.85E1,5.975E1,1.5E0,8.35E1,1.335E2,6.6E1,1.675E0,8.55E1,9.35E1,4.65E1,1.615E0,1.715E0,1.795E0,5.45E1,6.45E1,1.595E0,7.75E1,8.05E1,4.95E1,9.75E1,1.5E0,1.695E0,7.85E1,1.775E0,9.95E1,7.75E1,1.035E2,1.525E0,2.3103867E-1,1.595E0,1.785E0,8.35E1,1.695E0,1.5E0,1.755E0,8.75E1,1.59E2,1.775E0,1.505E0,4.95E1,4.85E1,5E-1,8.45E1,2.4323422E-1,-1.4977213E-2,5.4502445E-3,-5.822253E-2,2.9587878E-2,1.9915508E-1,-2.8269184E-1,-9.168354E-2,-1.23076074E-1,2.7265045E-1,1.1154882E-1,-1.905576E-1,1.6638926E-1,4.8072148E-2,-2.0970738E-2,2.5363082E-1,-2.9350296E-1,6.6947594E-2,-5.6696877E-2,-2.2684012E-1,-4.3442465E-2,-1.7079277E-2,3.8817094E-3,1.4606532E-1,-2.4956763E-2,1.1363884E-1,9.518901E-2,-8.1345916E-2,2.0656978E-1,-5.2198555E-2,1.0127084E-1,5.366328E-3,-3.1592944E-1,-1.7269358E-2,2.927549E-2,-8.203694E-2,-5.06278E-2,2.4254264E-1,-4.4065794E-1,1.8351512E-1,-8.108787E-2,7.8558005E-2,-1.6864045E-1,8.584019E-2,-2.5847225E-2,1.2418696E-1,2.0523737E-1,3.9792128E-2,2.4149095E-1,-1.0825237E-1,-2.2550823E-1,7.766723E-2,-2.4085571E-1,-4.478525E-3,1.431574E-1,4.211979E-2,-1.1114747E-1,1.3245949E-1,1.1728919E-1,-3.7803844E-1],"split_indices":[4,10,3,3,6,3,9,9,2,0,0,4,4,3,2,0,7,0,3,3,1,3,4,5,2,3,5,0,2,2,2,0,0,2,5,3,0,3,7,2,5,2,3,3,3,2,0,2,2,5,2,6,2,3,4,2,2,0,0,8,5,0,0,0,0,0,0,0,0,0,0,0,0,0,0,0,0,0,0,0,0,0,0,0,0,0,0,0,0,0,0,0,0,0,0,0,0,0,0,0,0,0,0,0,0,0,0,0,0,0,0,0,0,0,0,0,0,0,0,0,0],"split_type":[0,0,0,0,0,0,0,0,0,0,0,0,0,0,0,0,0,0,0,0,0,0,0,0,0,0,0,0,0,0,0,0,0,0,0,0,0,0,0,0,0,0,0,0,0,0,0,0,0,0,0,0,0,0,0,0,0,0,0,0,0,0,0,0,0,0,0,0,0,0,0,0,0,0,0,0,0,0,0,0,0,0,0,0,0,0,0,0,0,0,0,0,0,0,0,0,0,0,0,0,0,0,0,0,0,0,0,0,0,0,0,0,0,0,0,0,0,0,0,0,0],"sum_hessian":[9.102794E3,7.363187E3,1.7396064E3,1.492804E3,5.8703833E3,1.3974283E3,3.4217804E2,1.0960502E3,3.9675385E2,5.3693423E3,5.0104062E2,1.2150067E3,1.824217E2,3.1729202E2,2.4886005E1,1.0646759E3,3.137425E1,3.2944864E2,6.730521E1,2.8728562E3,2.496486E3,9.790596E1,4.0313467E2,1.1875105E3,2.7496172E1,1.053814E2,7.7040306E1,1.3811261E2,1.7917941E2,2.095069E1,3.9353163E0,6.846411E2,3.8003482E2,2.816358E1,3.2106712E0,9.071228E0,3.203774E2,6.0478962E1,6.8262434E0,2.6665286E2,2.6062034E3,1.6538E3,8.4268616E2,7.998987E1,1.7916092E1,3.9955447E2,3.5802E0,7.914241E0,1.1795963E3,1.892723E1,8.568942E0,5.4672726E1,5.0708675E1,5.0328037E1,2.671227E1,1.630874E1,1.2180387E2,4.963483E1,1.2954459E2,1.376633E1,7.1843605E0,1.9421935E0,1.9931227E0,5.5290924E2,1.3173184E2,3.7294836E2,7.0864334E0,7.0987325E0,2.1064846E1,1.1735483E0,2.037123E0,1.633341E0,7.437887E0,6.539618E1,2.5498123E2,5.804139E1,2.4375727E0,5.5615706E0,1.2646729E0,2.4850151E2,1.8151348E1,5.954614E2,2.010742E3,1.6365404E3,1.7259666E1,8.242988E2,1.8387331E1,6.5574265E1,1.44156065E1,1.6624773E1,1.2913194E0,2.2377935E1,3.771765E2,2.4086664E0,5.5055747E0,1.1665178E3,1.3078401E1,3.528047E0,1.5399183E1,2.462924E0,6.1060176E0,2.9598263E1,2.5074463E1,4.5236248E1,5.4724283E0,4.3060116E1,7.267919E0,1.1384652E1,1.5327618E1,1.523657E1,1.0721703E0,1.6326807E0,1.2017119E2,7.059484E0,4.2575348E1,2.3275663E1,1.0626892E2,9.296999E0,4.469331E0,1.5835997E0,5.600761E0],"tree_param":{"num_deleted":"0","num_feature":"11","num_nodes":"121","size_leaf_vector":"0"}},{"base_weights":[-4.6010542E-4,-1.9111528E-1,6.1442484E-3,-2.1566129E-1,6.657081E-1,-1.18662536E-1,1.475604E-2,-2.5375247E-1,1.649359E-1,8.995091E-1,1.3832796E-1,-2.0323387E-1,-2.6539432E-2,-8.660022E-4,6.49879E-2,-3.1527314E-1,1.022351E-1,3.7489393E-1,-9.566984E-1,1.1331087E0,2.0004974E-1,5.4893297E-1,-3.4882283E-1,-1.756896E-1,-7.230805E-1,-7.797899E-2,3.1334725E-1,-3.1806532E-1,2.6997966E-3,1.851038E-1,4.7531657E-2,-3.8704047E-1,1.8275717E-2,1.0315619E0,-4.4638265E-2,5.9204274E-1,-1.6689996E-1,-1.1260866E0,-2.7571738E-1,4.9319586E-1,1.4639782E0,-2.1862765E-1,8.448654E-2,-2.9782462E-1,-1.2021737E0,-3.8182488E-1,-3.8943745E-2,4.0648875E-1,-5.448937E-1,-9.8007756E-1,-2.523555E-1,-1.760186E-2,4.448861E-2,7.680157E-2,3.5486808E-1,4.4144444E-2,6.782749E-1,-4.9280462E-1,-2.5314698E-1,3.8635448E-1,-2.660597E-1,1.9335147E0,9.7779654E-2,1.4054124E-1,-7.719287E-1,7.171187E-1,-5.905357E-1,-8.9596707E-1,7.719434E-1,-3.9636455E-2,-2.661195E-1,-1.6721681E-1,6.35776E-1,-4.4126126E-1,3.269276E-1,1.081706E-1,-5.1275605E-1,-1.0493775E-1,1.7111039E-1,-1.7267516E-1,5.199422E-1,-9.9577683E-1,3.5148403E-1,-3.3781016E-1,4.9034808E-2,-5.827527E-3,-1.795832E-1,1.7507942E-1,2.379272E-2,3.4683928E-1,-8.2266005E-3,4.4088903E-1,1.4295885E-1,-4.273524E-2,6.660332E-2,8.829026E-1,2.2444889E-1],"categories":[],"categories_nodes":[],"categories_segments":[],"categories_sizes":[],"default_left":[true,true,true,true,true,true,true,true,true,true,true,true,true,true,true,true,true,true,true,true,false,false,false,true,true,true,true,true,true,true,true,true,true,true,true,true,true,false,false,false,false,true,true,true,false,true,true,true,true,false,true,true,true,true,true,true,true,false,false,false,false,false,false,false,false,false,false,false,false,false,false,false,false,false,false,false,false,false,false,false,false,false,false,false,false,false,false,false,false,false,false,false,false,false,false,false,false],"id":11,"left_children":[1,3,5,7,9,11,13,15,17,19,21,23,25,27,29,31,33,35,37,39,-1,-1,-1,41,43,45,47,49,51,53,55,57,59,61,63,65,67,-1,-1,-1,-1,69,71,73,-1,75,77,79,81,-1,83,85,87,89,91,93,95,-1,-1,-1,-1,-1,-1,-1,-1,-1,-1,-1,-1,-1,-1,-1,-1,-1,-1,-1,-1,-1,-1,-1,-1,-1,-1,-1,-1,-1,-1,-1,-1,-1,-1,-1,-1,-1,-1,-1,-1],"loss_changes":[1.1369031E1,6.501398E0,9.381477E0,4.3132973E0,9.438207E-1,4.3840823E0,6.4069085E0,5.906502E0,6.813896E0,7.2441053E-1,9.6014696E-1,4.076849E0,4.759228E0,7.0458965E0,4.05225E0,5.4875546E0,5.5437946E0,2.8997774E0,2.2054243E-1,1.5646076E-1,0E0,0E0,0E0,3.1480408E0,2.5864472E0,2.784441E0,3.0830648E0,2.7650747E0,5.22716E0,4.4848566E0,3.5857995E0,2.5439472E0,4.4453793E0,4.475574E0,4.921933E0,2.9698944E0,5.88816E0,0E0,0E0,0E0,0E0,2.0358496E0,5.712947E0,9.494896E-1,0E0,1.7719882E0,2.932647E0,2.2493176E0,1.9391128E0,0E0,1.6737418E0,7.9079375E0,5.44053E0,3.4723341E0,1.6743011E0,3.2895334E0,6.348672E-1,0E0,0E0,0E0,0E0,0E0,0E0,0E0,0E0,0E0,0E0,0E0,0E0,0E0,0E0,0E0,0E0,0E0,0E0,0E0,0E0,0E0,0E0,0E0,0E0,0E0,0E0,0E0,0E0,0E0,0E0,0E0,0E0,0E0,0E0,0E0,0E0,0E0,0E0,0E0,0E0],"parents":[2147483647,0,0,1,1,2,2,3,3,4,4,5,5,6,6,7,7,8,8,9,9,10,10,11,11,12,12,13,13,14,14,15,15,16,16,17,17,18,18,19,19,23,23,24,24,25,25,26,26,27,27,28,28,29,29,30,30,31,31,32,32,33,33,34,34,35,35,36,36,41,41,42,42,43,43,45,45,46,46,47,47,48,48,50,50,51,51,52,52,53,53,54,54,55,55,56,56],"right_children":[2,4,6,8,10,12,14,16,18,20,22,24,26,28,30,32,34,36,38,40,-1,-1,-1,42,44,46,48,50,52,54,56,58,60,62,64,66,68,-1,-1,-1,-1,70,72,74,-1,76,78,80,82,-1,84,86,88,90,92,94,96,-1,-1,-1,-1,-1,-1,-1,-1,-1,-1,-1,-1,-1,-1,-1,-1,-1,-1,-1,-1,-1,-1,-1,-1,-1,-1,-1,-1,-1,-1,-1,-1,-1,-1,-1,-1,-1,-1,-1,-1],"split_conditions":[1.095E2,8.7E1,4.25E1,6.15E1,1.5E0,7.15E1,1.5E0,1.5E0,8.35E1,7.15E1,1.625E0,2.5E0,1.5E0,5.3635E1,4.85E1,1.5E0,1.545E0,1.5E0,1.65E0,6.85E1,6.0014926E-2,1.646799E-1,-1.04646854E-1,1.5E0,6.55E1,1.585E0,1.765E0,1.515E0,1.285E2,4.65E1,6.45E1,6.95E1,1.605E0,6.5E1,2.5E0,1.73E0,2.5E0,-3.3782598E-1,-8.271521E-2,1.4795877E-1,4.3919346E-1,5E-1,1.225E2,8.5E1,-3.6065212E-1,5E-1,8.95E1,1.175E2,1.785E0,-2.9402328E-1,1.635E0,5E-1,4.85E1,6.625E1,1.33E2,5.25E1,2.5E0,-1.478414E-1,-7.5944096E-2,1.1590635E-1,-7.981791E-2,5.8005446E-1,2.9333897E-2,4.2162374E-2,-2.3157863E-1,2.1513562E-1,-1.7716071E-1,-2.6879013E-1,2.3158303E-1,-1.1890938E-2,-7.9835854E-2,-5.0165046E-2,1.907328E-1,-1.3237838E-1,9.807829E-2,3.2451183E-2,-1.5382682E-1,-3.1481326E-2,5.133312E-2,-5.180255E-2,1.5598267E-1,-2.9873306E-1,1.0544521E-1,-1.0134305E-1,1.4710443E-2,-1.7482581E-3,-5.3874966E-2,5.252383E-2,7.137816E-3,1.0405179E-1,-2.4679801E-3,1.3226672E-1,4.2887658E-2,-1.2820573E-2,1.9980997E-2,2.648708E-1,6.733467E-2],"split_indices":[4,5,0,0,6,3,6,7,3,3,2,7,7,3,0,6,2,6,2,3,0,0,0,6,3,2,2,2,4,0,0,3,2,3,6,2,6,0,0,0,0,10,4,5,0,10,5,4,2,0,2,8,0,3,4,0,6,0,0,0,0,0,0,0,0,0,0,0,0,0,0,0,0,0,0,0,0,0,0,0,0,0,0,0,0,0,0,0,0,0,0,0,0,0,0,0,0],"split_type":[0,0,0,0,0,0,0,0,0,0,0,0,0,0,0,0,0,0,0,0,0,0,0,0,0,0,0,0,0,0,0,0,0,0,0,0,0,0,0,0,0,0,0,0,0,0,0,0,0,0,0,0,0,0,0,0,0,0,0,0,0,0,0,0,0,0,0,0,0,0,0,0,0,0,0,0,0,0,0,0,0,0,0,0,0,0,0,0,0,0,0,0,0,0,0,0,0],"sum_hessian":[9.027168E3,3.01299E2,8.725869E3,2.9363535E2,7.6636715E0,5.624053E2,8.163464E3,2.6722412E2,2.6411219E1,4.820849E0,2.8428228E0,2.925922E2,2.698131E2,6.2276543E3,1.9358097E3,2.2794563E2,3.92785E1,2.2807632E1,3.6035855E0,3.1491456E0,1.6717033E0,1.4737873E0,1.3690354E0,2.7913983E2,1.3452363E1,2.3501564E2,3.479746E1,6.824951E1,6.159405E3,2.4441217E2,1.6913975E3,1.8745245E2,4.049318E1,4.5384474E0,3.4740055E1,1.62157E1,6.5919323E0,2.3623478E0,1.2412376E0,1.9221832E0,1.2269624E0,2.3973497E2,3.9404854E1,7.985692E0,5.466671E0,2.5755585E1,2.0926006E2,3.1865583E1,2.9318755E0,4.9061255E0,6.3343388E1,4.1458604E3,2.0135447E3,1.5010446E2,9.430772E1,1.6834271E3,7.970339E0,1.0322956E2,8.422289E1,1.7491383E1,2.3001797E1,1.7639737E0,2.7744734E0,2.8332832E1,6.407221E0,1.5020634E1,1.1950667E0,3.7362127E0,2.8557198E0,5.0655388E1,1.8907959E2,2.7531446E1,1.1873408E1,6.7334614E0,1.2522309E0,5.467586E0,2.0287998E1,1.5961368E2,4.9646385E1,5.134204E0,2.673138E1,1.8768961E0,1.0549793E0,4.9256584E1,1.4086801E1,3.865887E3,2.7997318E2,2.744307E2,1.739114E3,3.520838E1,1.1489607E2,6.630982E1,2.7997898E1,3.456017E2,1.3378254E3,4.8417535E0,3.128585E0],"tree_param":{"num_deleted":"0","num_feature":"11","num_nodes":"97","size_leaf_vector":"0"}},{"base_weights":[-4.6061364E-4,-1.5568912E-2,5.058354E-2,-8.850151E-3,-1.6149591E-1,3.899384E-2,1.6547696E-1,-1.5873483E-1,-2.4998975E-3,-2.1693781E-1,1.435995E-1,4.5768354E-2,-2.1811421E-1,2.3542336E-1,-1.9915245E-1,-2.7062353E-1,-3.6058724E-2,-2.0346496E-1,1.6525183E-3,-4.4923103E-1,-1.5587327E-1,7.914653E-1,-7.256691E-2,7.364414E-2,1.0233849E-2,-3.6250532E-1,1.591333E-1,-2.1351932E-1,2.8829136E-1,3.566324E-2,-1.0041716E0,-2.0706649E-1,-5.492302E-1,-8.593472E-3,-8.5791177E-1,-2.3568957E-1,2.7958873E-1,-1.6268566E-1,6.4708875E-3,-7.474438E-1,-3.0146587E-1,-1.1539237E-1,-6.81534E-1,1.0225021E0,-4.103444E-1,-8.191971E-1,7.12645E-2,6.2970825E-2,3.3171168E-1,8.7362416E-2,-3.1656485E-2,1.6618846E-1,-5.235039E-1,-2.7596503E-1,7.9641354E-1,-3.801867E-1,8.250933E-1,3.392084E-1,-3.3903787E-1,-5.99091E-1,1.792478E-1,-1.377742E0,-1.7178778E-1,3.9849523E-1,-2.4539438E-1,-8.9778715E-1,-1.1416885E-1,-5.6805253E-2,3.8648003E-1,-1.3489118E-1,-5.3051686E-1,-5.610242E-1,6.4336157E-1,-4.3786347E-1,-1.3045439E-1,5.300838E-3,7.563853E-1,-2.5887066E-1,-1.0539294E0,-3.71612E-1,3.2343894E-1,-3.5638893E-1,-1.9781688E-2,5.6937647E-1,-8.639419E-1,1.5540813E0,6.099651E-1,-1.0494046E0,-2.905433E-1,4.4148844E-1,-1.8570536E-1,8.804953E-2,-9.6921705E-2,5.698742E-1,-1.393236E-1,3.384582E-2,2.9220945E-1,6.670848E-1,-4.261104E-2,-7.914347E-2,6.4369255E-1,-2.9342112E-1,-7.676473E-1,2.8777647E-1,-7.193329E-1,9.986198E-2,9.256242E-1,-1.7003632E-1,-1.2022784E0,4.1322055E-1,9.286439E-2,-6.3731307E-1,8.2074565E-1,3.7121275E-1,-1.4951249E0,-3.846522E-1,3.5949996E-1,-3.903497E-2,-2.0684838E0,-5.7210386E-1,2.6478648E-1],"categories":[],"categories_nodes":[],"categories_segments":[],"categories_sizes":[],"default_left":[true,true,true,true,true,true,true,true,true,true,true,true,true,true,true,true,true,true,true,true,true,true,true,true,true,true,true,true,true,true,true,true,true,true,false,true,true,true,true,true,true,true,true,true,false,true,true,true,true,true,true,true,true,true,true,true,false,true,true,true,true,true,true,false,false,false,false,false,false,false,false,false,false,false,false,false,false,false,false,false,false,false,false,false,false,false,false,false,false,false,false,false,false,false,false,false,false,false,false,false,false,false,false,false,false,false,false,false,false,false,false,false,false,false,false,false,false,false,false,false,false],"id":12,"left_children":[1,3,5,7,9,11,13,15,17,19,21,23,25,27,29,31,33,35,37,39,41,43,45,47,49,51,53,55,57,59,61,63,65,67,-1,69,71,73,75,77,79,81,83,85,-1,87,89,91,93,95,97,99,101,103,105,107,-1,109,111,113,115,117,119,-1,-1,-1,-1,-1,-1,-1,-1,-1,-1,-1,-1,-1,-1,-1,-1,-1,-1,-1,-1,-1,-1,-1,-1,-1,-1,-1,-1,-1,-1,-1,-1,-1,-1,-1,-1,-1,-1,-1,-1,-1,-1,-1,-1,-1,-1,-1,-1,-1,-1,-1,-1,-1,-1,-1,-1,-1,-1],"loss_changes":[6.9197636E0,6.786747E0,2.7223186E0,6.3004208E0,5.184909E0,3.2545836E0,4.8281503E0,3.6832638E0,5.300857E0,3.5929308E0,6.703325E0,1.7979E0,2.672098E0,3.8057566E0,5.841945E0,2.375207E0,2.9155922E0,2.067627E0,4.929644E0,2.1198797E0,4.305058E0,3.7394118E0,3.9779012E0,2.781476E0,2.5856087E0,3.0675082E0,4.096271E0,3.2900894E0,4.636607E0,2.36265E0,1.930799E0,2.7914176E0,3.7649727E0,2.427909E0,0E0,3.527155E0,2.9600165E0,1.5157032E0,5.30262E0,2.2664213E0,1.7536197E0,4.428093E0,3.8064923E0,1.3140774E0,0E0,4.223113E-1,3.0809693E0,3.9311266E0,4.586096E0,3.0775275E0,3.999374E0,1.0974143E0,1.2960858E0,2.469204E0,4.4124508E-1,2.4736202E0,0E0,2.3579302E0,4.37232E0,4.7239985E0,2.2676978E0,4.236434E0,7.285136E-1,0E0,0E0,0E0,0E0,0E0,0E0,0E0,0E0,0E0,0E0,0E0,0E0,0E0,0E0,0E0,0E0,0E0,0E0,0E0,0E0,0E0,0E0,0E0,0E0,0E0,0E0,0E0,0E0,0E0,0E0,0E0,0E0,0E0,0E0,0E0,0E0,0E0,0E0,0E0,0E0,0E0,0E0,0E0,0E0,0E0,0E0,0E0,0E0,0E0,0E0,0E0,0E0,0E0,0E0,0E0,0E0,0E0,0E0],"parents":[2147483647,0,0,1,1,2,2,3,3,4,4,5,5,6,6,7,7,8,8,9,9,10,10,11,11,12,12,13,13,14,14,15,15,16,16,17,17,18,18,19,19,20,20,21,21,22,22,23,23,24,24,25,25,26,26,27,27,28,28,29,29,30,30,31,31,32,32,33,33,35,35,36,36,37,37,38,38,39,39,40,40,41,41,42,42,43,43,45,45,46,46,47,47,48,48,49,49,50,50,51,51,52,52,53,53,54,54,55,55,57,57,58,58,59,59,60,60,61,61,62,62],"right_children":[2,4,6,8,10,12,14,16,18,20,22,24,26,28,30,32,34,36,38,40,42,44,46,48,50,52,54,56,58,60,62,64,66,68,-1,70,72,74,76,78,80,82,84,86,-1,88,90,92,94,96,98,100,102,104,106,108,-1,110,112,114,116,118,120,-1,-1,-1,-1,-1,-1,-1,-1,-1,-1,-1,-1,-1,-1,-1,-1,-1,-1,-1,-1,-1,-1,-1,-1,-1,-1,-1,-1,-1,-1,-1,-1,-1,-1,-1,-1,-1,-1,-1,-1,-1,-1,-1,-1,-1,-1,-1,-1,-1,-1,-1,-1,-1,-1,-1,-1,-1,-1],"split_conditions":[8.95E1,5E-1,1.745E0,1.095E2,1.5E0,1.735E0,9.55E1,6.95E1,5.475E1,4.65E1,4.85E1,7.69E1,1.475E2,6.95E1,5E-1,5.95E1,1.785E0,1.685E0,4.05E1,1.5E0,9.35E1,1.74E0,5.05E1,1.715E0,5.25E1,4.95E1,8.45E1,6.25E1,6.25E1,4.7E1,1.785E0,5.25E1,6.15E1,6.15E1,-2.5737354E-1,1.615E0,4.75E1,5.95E1,1.0525E2,1.615E0,8.95E1,6.75E1,4.95E1,7.05E1,-1.2310332E-1,1.5E0,1.5E0,1.685E0,1.725E0,9.35E1,1.185E2,1.5E0,1.34E2,5.45E1,4.65E1,9.5E1,2.47528E-1,1.425E2,5E-1,4.35E1,9.75E1,5.45E1,1.03E2,1.19548574E-1,-7.3618315E-2,-2.6933616E-1,-3.4250658E-2,-1.7041577E-2,1.1594401E-1,-4.0467355E-2,-1.5915507E-1,-1.6830726E-1,1.9300848E-1,-1.3135904E-1,-3.913632E-2,1.5902515E-3,2.2691561E-1,-7.76612E-2,-3.1617886E-1,-1.1148361E-1,9.703169E-2,-1.0691668E-1,-5.9345067E-3,1.7081295E-1,-2.5918257E-1,4.662244E-1,1.8298954E-1,-3.148214E-1,-8.716299E-2,1.3244654E-1,-5.5711612E-2,2.641486E-2,-2.9076513E-2,1.7096227E-1,-4.1797083E-2,1.0153746E-2,8.766284E-2,2.0012546E-1,-1.2783312E-2,-2.3743043E-2,1.9310777E-1,-8.802634E-2,-2.3029421E-1,8.633295E-2,-2.1579987E-1,2.9958595E-2,2.7768728E-1,-5.1010896E-2,-3.6068353E-1,1.2396617E-1,2.7859317E-2,-1.9119392E-1,2.462237E-1,1.1136383E-1,-4.485375E-1,-1.15395665E-1,1.0784999E-1,-1.1710491E-2,-6.2054515E-1,-1.7163116E-1,7.9435945E-2],"split_indices":[5,9,2,4,7,2,3,3,3,0,0,3,4,3,8,0,2,2,0,1,3,2,0,2,0,0,3,0,0,0,2,3,0,0,0,2,0,3,3,2,3,3,0,3,0,1,1,2,2,5,4,6,4,0,0,5,0,4,8,0,3,0,3,0,0,0,0,0,0,0,0,0,0,0,0,0,0,0,0,0,0,0,0,0,0,0,0,0,0,0,0,0,0,0,0,0,0,0,0,0,0,0,0,0,0,0,0,0,0,0,0,0,0,0,0,0,0,0,0,0,0],"split_type":[0,0,0,0,0,0,0,0,0,0,0,0,0,0,0,0,0,0,0,0,0,0,0,0,0,0,0,0,0,0,0,0,0,0,0,0,0,0,0,0,0,0,0,0,0,0,0,0,0,0,0,0,0,0,0,0,0,0,0,0,0,0,0,0,0,0,0,0,0,0,0,0,0,0,0,0,0,0,0,0,0,0,0,0,0,0,0,0,0,0,0,0,0,0,0,0,0,0,0,0,0,0,0,0,0,0,0,0,0,0,0,0,0,0,0,0,0,0,0,0,0],"sum_hessian":[8.970813E3,6.922541E3,2.0482727E3,6.618857E3,3.0368433E2,1.8618053E3,1.8646742E2,2.6805167E2,6.350805E3,2.5722955E2,4.6454773E1,1.814809E3,4.699623E1,1.567522E2,2.9715225E1,1.395588E2,1.2849286E2,1.2759454E2,6.2232104E3,5.222101E1,2.0500854E2,1.0956377E1,3.5498394E1,1.01640015E3,7.984089E2,3.4015797E1,1.29804325E1,1.6194403E1,1.4055779E2,2.374481E1,5.9704146E0,1.1505512E2,2.450369E1,1.2531544E2,3.1774213E0,1.2009506E2,7.499483E0,1.7633286E2,6.046878E3,1.59576645E1,3.6263344E1,1.9148212E2,1.3526436E1,9.314877E0,1.6415007E0,4.9754176E0,3.0522978E1,9.772274E2,3.9172756E1,2.806289E2,5.1777997E2,7.9329658E0,2.6082832E1,8.050784E0,4.929649E0,1.45013075E1,1.6930943E0,1.304307E2,1.0127095E1,3.7951105E0,1.99497E1,3.6687279E0,2.301687E0,6.2893605E0,1.0876576E2,1.301384E1,1.1489852E1,1.124492E2,1.2866234E1,9.0583145E1,2.9511913E1,2.1013672E0,5.3981156E0,1.7168657E1,1.591642E2,6.0384634E3,8.414403E0,6.8625755E0,9.095088E0,3.2967987E1,3.2953568E0,5.3614285E1,1.3786783E2,1.4514295E0,1.20750065E1,2.8610744E0,6.4538016E0,2.7798529E0,2.1955647E0,1.2211484E1,1.8311493E1,8.451217E2,1.3210573E2,2.5878408E1,1.3294347E1,2.2342421E2,5.7204685E1,7.067701E0,5.1071225E2,5.79161E0,2.141356E0,1.4561652E1,1.152118E1,3.6987543E0,4.35203E0,1.0487715E0,3.8808773E0,1.2510179E1,1.9911293E0,9.977627E1,3.0654427E1,8.413727E0,1.713368E0,2.103247E0,1.6918635E0,4.5576386E0,1.5392061E1,